/*
 * main.c
 *
 *  Created on: 04-May-2017
 *      Author: chetan
 */
//#include "/home/chetan/ti/ccsv6/tools/compiler/gcc-arm-none-eabi-4_9-2015q3/arm-none-eabi/include/math.h"
#include <math.h>
#include <stdbool.h>
#include <stdint.h>
#include "inc/hw_memmap.h"
#include "driverlib/adc.h"
#include "driverlib/gpio.h"
#include "driverlib/pin_map.h"
#include "driverlib/sysctl.h"
#include "driverlib/uart.h"
#include "utils/uartstdio.h"
#include "driverlib/interrupt.h"
#include "inc/hw_ints.h"
#include <stdint.h>
#include "userinterrupt.h"
#include "mylcd.h"

char deselogo[600];
int startpredict;
unsigned char rv;

void (*activationfunction)(double *,double *,int);
void (*dActivationFunction)(double *,double *,int);
#define inputDimension 784
#define outputDimension 26
#define numberofHiddenUnits 30


const double hiddenWeights[numberofHiddenUnits][inputDimension]={
{0.11286015,-1.3823676,1.3685911,-0.89635408,-0.64711553,0.25226307,-2.0917523,-0.48889169,-0.76222742,-1.1592203,-0.16443206,-0.42965925,1.649286,1.221797,-1.037395,-1.6145378,-0.52871412,1.7123328,-0.59519136,-1.0742102,-0.028078631,-0.97981054,-1.300945,-1.0733989,-1.3567708,-0.19296531,0.49736845,1.4754004,0.66777867,-0.2228522,0.64037716,-1.8323083,-0.34481618,0.15369326,0.16412492,1.3224,-0.60773319,-0.74525529,0.74207485,0.29383451,0.21467125,-0.067400746,-1.1314847,0.26272637,1.4783909,-0.14303017,0.84352225,0.83221835,-1.2129177,0.52381319,-0.95982647,-0.054569639,-2.2570498,1.5053672,-0.64991236,-0.52666497,0.62732643,-0.38101843,-0.53775758,-1.6822512,-2.1955633,-0.65459985,5.1248498,1.122776,2.706691,-1.8549469,0.953017,-0.31268695,0.20792863,0.40648639,-0.31265247,-0.6465646,-0.37067091,0.15902139,-4.4672885,-6.0271182,1.4650586,0.61530513,1.4080013,1.413083,-2.4427025,-0.38321197,-0.3253307,0.96511853,-0.89584571,1.650422,0.24703589,-1.8096919,-0.53512317,-4.0852866,5.0089455,-0.87217271,-10.977038,-3.9824743,0.26959708,0.30896583,-3.0761204,-5.0971799,-8.8745594,-0.87711608,0.92587411,-1.2836117,-0.66858155,0.36876735,-2.8311067,4.525064,-1.3434849,1.7273263,3.3665318,6.3888493,-1.4655017,0.94483137,0.96195585,-0.57453108,7.96489,2.2929344,-1.9651822,-1.2339326,-1.0839888,0.87831289,-3.1670051,-3.5335352,-1.6876736,-0.69902742,-0.48439914,-1.0708883,-2.0538273,-2.0311024,1.1526927,0.15763612,-1.0841012,-0.23380223,0.56765419,-2.8039584,3.808898,1.0364183,1.483932,1.7494845,0.5450542,-0.3642014,1.0340556,0.47555247,6.6763768,-1.1500862,1.6853229,0.12842615,0.033710893,1.6298295,0.74360126,0.10979994,-0.26197323,0.71289998,-1.3194121,-1.1413934,-2.6275644,-0.43673375,-0.48762742,0.32995871,-2.2831841,-0.2634269,-0.1237196,-1.1296542,2.8350091,-0.33986878,-0.58149117,-11.745939,-0.91522598,-0.71033525,-0.38002476,0.038064007,11.833277,-1.5099485,-1.3718153,-0.92647821,1.4270048,3.209106,2.4491506,0.71692318,-0.88978344,0.49585411,0.068912581,-2.027879,-1.3745821,0.9277578,0.095680669,0.17085069,-1.0042576,1.3938074,0.47995371,-0.40134418,-1.6928216,0.10561055,-2.1440332,-3.4334681,-0.41172874,0.36585233,-1.4139899,0.017015122,9.4447727,1.3228052,0.20772311,-2.3158605,2.0108202,0.56038618,0.98857969,-0.35225493,0.97122401,-0.11351509,-0.29694214,-2.6131656,-3.1895735,-1.0051476,-1.0710559,0.48516539,0.68361014,1.0246732,-0.76888639,-2.4165292,0.078230791,0.055892326,1.1146859,1.7923316,-1.742149,-0.73453885,-2.2603095,0.31652114,9.5896854,-0.022886802,1.3378506,1.280895,1.4099455,-0.33099237,-2.0809565,1.6715001,1.2505628,-0.43710458,-2.0847888,-3.1158588,-2.2336893,-0.83587694,0.58038032,0.14074495,1.4873261,0.82349688,0.12563223,1.1735941,-1.6878065,-0.86835337,2.0977166,-1.1471801,-2.2839444,0.82767242,-0.40205491,-0.51241386,15.347939,-1.0180582,0.070466615,-0.3395645,-0.25769359,-0.16151731,-0.71116704,0.060488682,3.1148391,0.20243485,-0.13452019,-3.1436226,-2.0117338,0.027721634,0.58806145,0.8997789,-0.15860362,-1.4688107,0.36203155,0.10504203,-0.97344011,-0.91549617,2.6441135,-6.561306,0.92942333,-1.1266352,-0.84818649,-0.85044187,4.2986951,-2.533855,0.51739454,0.38144109,-0.16489011,-1.0843204,1.3932492,1.0793997,-0.84932965,-0.11976938,-0.81925517,-1.5800701,-0.54100418,-0.71342528,-0.31598517,0.68601596,0.48900974,1.1599783,-1.124401,1.3701497,0.10627522,0.95059085,0.69523388,-9.6649866,-1.0661033,0.36432639,0.62276,2.9397445,0.47748932,-0.22584867,0.5891006,0.065383561,1.6436033,-0.50599033,0.86750847,-1.584949,0.04641141,-0.35874569,0.95650887,-1.5304743,-2.7260954,0.25003469,0.47048631,-0.7944032,0.14872891,-0.51460135,0.41376343,-1.1793582,0.38951105,-2.4402335,0.87014824,-5.712419,-2.2391982,0.81329232,0.77994585,-1.7611004,-2.2826002,-0.31639442,-1.8875164,-0.91012537,0.5202477,0.54769367,-0.30479866,0.7014401,-0.23963152,-1.1384615,1.1834557,-1.6979316,1.5746858,0.19383687,0.81288642,1.4535404,-1.3457721,-0.74310935,1.4811926,0.22069392,1.0482116,-1.0810182,3.414969,-6.7885013,-4.3130069,0.19433829,-0.57875228,0.43762237,-1.2836541,-0.73545372,0.79062176,0.36075386,-0.27456775,-0.19918472,-0.32898402,0.3365981,-0.49432504,0.002088367,0.13345498,-1.4734471,0.422501,0.32773462,-0.3426615,0.068452917,0.026691973,-1.2958604,0.039996106,0.39062986,0.27841461,-0.25839147,-0.72438908,-5.6768036,-1.3476287,-0.03147956,-0.79046601,0.42223921,4.5754552,0.94903535,1.015519,0.36884108,-0.60343075,0.53739929,-0.49870959,0.79268998,0.69208479,0.74570435,0.046313718,-0.21781909,0.20837206,-0.26912466,0.50702816,-0.30839437,-1.6555299,1.4665037,0.66248906,-0.61438799,-0.064978957,0.84925425,1.0733072,-1.9577886,-0.88700449,-0.21612114,1.4693764,0.71407712,4.2958283,-0.0011585744,-0.9261452,1.2773733,-1.6435533,1.235013,-1.4123405,1.6175503,-0.81561172,2.2108366,-0.23657875,0.61520427,-0.11438319,-0.78485757,-1.0316317,-1.7988623,0.019135894,2.2867143,-0.81428629,0.52881658,1.0957816,1.0778774,-0.48119855,-0.8235988,0.30696318,0.16499534,0.67785048,-1.7078613,-1.7977639,0.44948807,0.50314879,-0.23211348,-0.41255438,-0.1645782,-0.2668266,0.35056004,-0.3515659,0.44142187,0.59890497,-0.64679366,-0.34863675,-1.6921798,0.2358,-0.71263957,0.94843024,-1.0262307,-1.0276184,0.24485256,0.99578142,0.21282515,0.50137115,1.2560036,1.5501782,0.22655877,-0.18887846,-0.11738435,4.3633838,0.82060236,-0.79371369,1.1732239,0.41641903,0.17010167,-0.59214312,0.78165394,1.970765,-1.6667067,-2.9090304,0.82667601,-0.77949017,-3.3834898,-0.82421708,0.89038557,1.3374736,0.15875958,-0.11932693,1.1463553,2.1062071,-0.11407991,-0.11667318,-1.6051095,0.69129741,0.23557003,-0.039266251,1.6045334,0.059647262,-1.8458277,0.36225712,0.46349129,0.71640968,0.9280743,-0.18219721,0.87199032,-0.4114165,-0.94330078,-0.95045835,-2.4288802,-0.27681476,-2.2686512,-1.7113577,1.2266883,0.1860754,-1.4377708,1.5686321,-0.62860179,1.7332703,0.39741868,0.89705944,-8.1026945,-0.69748288,-0.36655283,2.8469951,6.5242105,-1.6937239,0.3853313,-0.23980443,-0.21116859,-0.33259401,1.0108217,1.8503921,-0.71286374,0.82138044,-0.42180726,1.088953,-4.2639241,-4.2627177,1.7140273,-1.2491735,0.10227574,1.3107026,-0.73745555,1.1979045,0.30793017,0.75160849,3.341239,2.1479003,-10.011747,-1.7481968,-2.0434554,-0.22912472,6.944171,-6.4061518,-0.57855493,-0.97818774,0.15045695,0.56084907,-1.6629592,0.56172019,1.1437453,1.5593591,-0.60263813,1.1503747,-6.8989811,-4.067699,1.7227887,0.27238175,-2.531152,-2.1691263,1.8961512,1.4276185,-1.4187524,-0.359687,1.1063421,-1.5977427,-3.4677763,0.81694305,1.1704472,0.48552603,0.76583409,-3.3565154,0.95980453,1.4355853,-1.2192645,1.0925183,0.59436834,0.59711236,1.893767,-0.27332443,-1.3137302,-1.9992085,-2.3340933,-0.28328398,-0.9213149,0.45208281,-1.6056635,1.1361036,-1.0739028,-1.5854937,2.0253725,0.44928217,-0.66511405,1.9889823,-4.4134192,-0.42749709,-0.30729857,0.11158909,-0.86627918,-2.9714351,2.3080556,-1.0647339,-1.0777861,1.4500892,2.617806,1.5693399,0.054950126,0.73913521,-5.3774328,-4.4991245,-1.7969713,-3.6380758,-1.2954278,-1.1435337,-0.52715802,-0.77300614,-2.0084343,0.79370922,-0.10848058,0.27082863,0.51474261,0.9874385,-1.3754425,-0.28347221,-0.98676568,0.7675181,-0.0062905974,-0.78326255,1.1052123,-1.4808675,0.12330594,1.6467247,-4.2243423,-1.0583427,0.16806667,-0.53542721,-5.5292139,-4.3821731,-0.80495846,0.97274768,2.379035,1.7970693,2.7473462,2.8163421,2.1412892,4.1426463,-0.21690011,1.3557407,0.76784837,0.3570013,-5.0198307,0.70666385,0.48806936,-1.59003,-0.11300907,-4.3516603,-0.44407901,-1.9665912,-4.5943604,-1.7930955,-0.64313191,3.8855579,-0.084296174,0.50131106,-6.5589247,1.6648571,5.8296881,5.0777435,3.0702262,1.272562,5.8071065,1.2435178,3.5457959,1.3716172,1.7300296,-2.8279803,-1.4818481,1.7194309,-6.1935315,-0.39235461,0.75519657,-0.036636211,-1.3535676,-0.10134036,-0.51635438,-6.9013114,-4.2387233,-0.056074645,1.2010763,9.5249977,6.1210499,-2.4740841,-1.0629165,-2.1151648,-2.6244221,-3.8481896,-2.8578551,-0.84976017,3.9851174,4.4841356,1.5252171,0.15210332,-0.2808145,0.020660518,-0.58934152,0.16480894,-1.6495435,-0.25558633,0.50467074,-0.38603881,0.22515342,-0.86627674,-0.70142132,0.21240132,1.2985808,1.9075499,-1.0818298,0.52837461,-0.85821724,-1.3302121,0.08483208,-0.10961363,-0.80265015,-0.8251459,2.0273664,-0.27689269,-1.497684,-0.26982433,0.45151189,0.4608365,-0.26904356,1.2221535,0.59749389,-0.5040006,1.2956426,0.30913046,-0.27500004,-0.80658907,0.83570147,0.71213466,0.012608365,-0.27559212,1.0910269,1.7244595,-1.3979796,-0.655424,2.469842,1.0937568,0.6775192,-0.21121395,-0.29987544,-0.81449056,1.1427766,0.14999001,0.55220705,-0.56326795,0.41581568,0.064308234,0.21119344,1.062256,-1.1829778,-2.0222547,-0.1386319,1.1616496,0.14628974},
{1.9777547,-0.19519424,-0.14134212,1.6325983,0.10432293,1.1153371,-0.63321573,1.1015944,0.11297583,1.4488337,-0.67120159,0.22608024,-1.5866225,0.86698669,-0.94537896,0.69574481,0.50223422,-0.89053237,-0.60104948,-2.2535892,0.84374189,1.4735988,-0.23864692,1.5598017,0.18322939,-0.60475761,0.87521386,1.8222632,1.7930268,-0.56354052,-0.22697464,-0.39479962,0.75292391,-0.70507663,-0.15494055,0.23860684,-0.19517283,1.3687929,-1.1432722,0.24187313,0.15248203,0.25080881,0.83902359,0.55990374,-0.16591218,-0.2986919,-0.62233222,1.4908068,-1.1286896,-0.85470062,-0.52089286,-7.0291739,-5.0902309,1.2080125,1.7082859,-0.073067121,-0.45571852,1.0715609,0.4057073,-0.20934656,-1.3338184,0.23131111,0.78789085,-0.97426909,-0.49862406,-0.54066294,0.62337101,0.1708924,-1.2726817,0.11050272,-1.3909588,-1.3410174,-0.40738598,1.6276027,-0.48920807,1.336025,0.38871023,-0.10664195,8.2427101,5.7739434,4.386148,8.2339706,0.11831862,0.27505261,-0.035720699,0.7969203,0.22538559,-1.6334343,-0.86045671,-0.98179495,0.090377554,-1.3110824,0.77482468,0.6650846,0.18430661,1.7536352,-0.47193745,-1.3619624,-2.6703379,-1.5762931,-0.74087375,0.79891819,0.4409048,1.2003126,2.0672076,0.29893935,1.2725989,2.3155537,2.8025544,4.6069322,-0.10303414,-0.42892036,-0.74553847,1.7553375,-0.90421802,-2.3110962,-0.42544949,0.52254128,-0.18080458,-0.961721,-2.0321655,-0.31574288,-2.2634854,-1.6184309,0.30638605,0.78970677,1.415718,1.5844599,1.5023602,1.264818,0.24997914,0.28829685,0.089717552,0.50673628,0.29896596,-0.97539526,-0.15722868,4.7699833,0.27897051,0.32273105,0.15261436,0.73433644,-1.0436226,-0.071963869,-0.41038769,-1.3041072,0.97808629,0.080485426,-0.50983489,-0.83992219,-0.76372093,-2.6790926,-0.074576713,0.7823832,-1.0823002,-0.63355231,-0.13474458,-1.0075138,0.46659359,0.88624412,-0.040419586,0.0052369307,0.56403762,-1.2636737,1.1318333,1.6338117,-0.98973233,2.0224304,-0.30795431,-1.7678303,2.3327003,-1.2083551,-1.7131125,-1.9770082,0.54264796,-0.091256373,0.46420529,0.24601158,-1.5936059,-0.081939712,0.074054226,1.2745937,1.4918592,0.99825579,1.1465629,0.59415662,0.83249956,-0.39082825,-0.29103503,0.44442743,1.7627177,1.1060392,1.0053921,6.1432133,0.47635707,0.9763214,0.35568216,1.0036904,1.8605839,0.56931001,-0.60708469,-0.80392689,0.10575514,0.8479467,0.65718144,0.50245291,-2.2783618,-0.31201476,-0.060248181,-0.5135119,-0.17239518,-0.99139261,0.1688064,-0.8698495,-1.8549296,-2.0563581,-2.1293409,0.83612156,1.3348997,0.78377968,0.69643891,2.9559333,0.51942617,1.3204163,0.11740127,0.27720156,0.051512294,2.1868713,-1.3519113,0.10969485,1.0128226,0.41181588,0.6267519,0.83426464,-0.59797186,0.14693141,-0.82733613,-1.8610899,0.2811836,0.52852166,1.7571322,2.570385,0.24096295,-0.36475369,0.15201083,0.24512729,1.5697457,-0.77519166,0.067460857,-5.1730099,1.9762176,-0.69498944,1.606757,0.38410288,-1.5936755,-0.10112128,-1.4329844,1.489904,0.069077909,0.7610684,-0.70600367,0.54690015,0.32330653,0.31080669,-0.15267469,-0.24386118,-1.7836186,-0.79714489,-1.3090848,-0.28771538,-0.76698309,0.88305771,-1.2463948,0.49494377,-0.45621696,-1.4246542,-2.3245978,-0.25677526,-0.34431085,-0.047630593,-0.05853482,1.0073537,4.0898857,2.2433345,1.3513786,-1.8927953,0.36008736,0.52587688,-1.1679465,-0.49467972,0.83243132,0.024590578,0.97931296,-0.63321292,0.31012765,1.517759,0.3264842,0.36002254,1.00466,1.6876125,0.08918263,0.74676931,-0.42530194,-0.18767992,-3.144237,0.69677895,0.09204156,-0.98532575,-0.60594296,1.752365,3.4641328,0.58841592,0.48101598,-0.18990213,-0.92924082,-0.22181965,-2.1798739,-0.18152253,-0.59849399,0.15469369,0.75482577,1.3449686,-1.4402335,0.47007951,0.12144771,0.58922821,0.72961569,0.35716957,-1.7365566,0.97601026,1.493349,1.5037453,-1.5247029,-0.49721304,-1.3198676,-1.7439805,-0.4482688,1.367346,6.9737005,1.0658437,0.69838297,-0.66134357,-0.85089189,0.8023423,0.12319577,-0.079230838,-0.74173748,0.8261891,-0.14152209,-0.22828816,-0.18212207,-0.74423671,0.41343066,0.39356303,-1.14094,1.9475048,0.19711229,-0.93597931,0.49370635,0.91450465,-1.0084734,-0.52536976,-1.8276491,1.7131566,0.035702281,2.0853183,3.8204107,2.0349021,1.6404877,-0.55323887,-0.74101716,-0.88832158,0.41247728,-2.1604233,-0.8983646,0.36871898,0.21847394,-0.3370021,-2.351382,1.6534716,1.3196735,1.3294611,-2.4662499,0.82214987,0.93648052,1.8626485,0.25273657,0.61222821,-0.40352693,2.6304908,0.52741534,1.1403543,-1.1617875,0.16514429,0.84598362,-0.15434316,2.1072025,-1.3695314,-0.55686623,-0.58515787,-0.26853397,-2.4795434,-2.2114763,0.026658412,-2.5101597,-2.1112621,-0.55072594,-2.1426535,0.14178553,0.75129908,1.540193,0.34408653,-1.3383658,0.1140728,-0.61976087,-0.33128411,-0.8455072,1.8236054,-1.8931172,1.0924751,-0.60761362,0.13114217,-1.8459224,-1.2992548,-0.43680567,-0.13251659,-1.6543895,-2.6819057,-2.7959719,-2.106271,-0.69244671,-1.0913594,-1.8790191,-1.2339422,-1.1680737,-0.9107908,0.89095891,1.921756,0.062947348,0.62236869,1.285305,-2.131835,-0.63123345,2.2651153,1.7060869,1.6891382,-2.3721917,-0.28317249,0.77077991,1.3120203,-3.123389,-0.88644606,0.30452624,-1.0201606,0.35985836,0.58640891,-1.797307,1.0713266,-1.7233654,-3.9062672,-0.69555449,-0.68217361,1.8367925,0.82976639,0.68296939,0.54666865,0.41699201,2.155544,2.1542833,0.23942131,0.28342015,0.49417916,1.6284007,3.2019887,0.4936322,1.4320509,-0.71596819,-0.083781466,-1.3912902,-2.0108733,-0.54921919,-1.3113132,-1.3822732,-1.252793,-1.5873884,0.025449319,-0.085149713,0.10049066,0.52120411,-0.25384584,-0.40325579,1.4141653,2.1782641,0.4401046,0.66806096,1.5185804,-0.46687225,-1.2979233,0.035643037,-1.8619494,2.50262,4.6412263,1.5028027,4.9505939,-0.29106155,1.237841,-2.9668503,-2.428833,-0.86604524,-1.1606042,-3.1984026,-3.9670727,-1.5434486,-1.6861498,-1.904249,0.21380739,-0.5816251,-0.39655134,-2.1966238,0.49199,-0.12084058,-0.16980088,1.7664157,-1.0778613,0.30919418,0.20229274,-0.318376,1.0681601,0.72434062,2.4406109,-0.27132845,-1.8257544,2.5045965,5.4060922,-2.9712636,-1.2273601,-2.0717311,-0.98665631,-2.9401517,-0.79073042,-2.6632044,-0.84873772,0.018549174,0.16219176,-1.8992028,-1.5324544,-0.96569675,-0.87813556,0.063289657,1.201074,1.0357616,0.78971511,0.49173275,0.62232172,-1.0772607,0.078677915,0.94257373,3.1111774,-0.64536113,-1.5330609,-1.1635842,4.3669162,4.6051517,-2.0063972,-0.064259462,-2.458822,-1.0159646,0.013247377,-0.91964889,-0.46939996,0.8724888,-1.1083884,1.4114953,1.2551384,1.238418,0.92860383,-0.49784863,0.044298746,1.98674,0.026257837,0.94110733,1.5148985,-0.060190864,-1.6558869,-0.87175524,4.557754,-1.3516467,0.1110343,-0.069959871,0.26878709,0.90947783,1.061972,0.1665888,-1.556407,-0.56293625,0.93050164,-0.20571715,-0.14461987,-0.25900003,-0.38402629,-0.3979353,0.50651723,-0.71428037,1.5410813,2.1285729,2.7062848,-0.67265707,0.30982906,0.77077621,1.4092066,0.94827187,0.69486141,0.81693405,4.9043241,0.80585641,-0.93549883,0.15086511,0.32734403,-1.8118747,-0.37439862,-2.3270993,-0.45276901,0.42360139,0.33631849,-0.78293729,1.0175991,1.1836867,-0.85827619,-0.71936983,-0.20481828,0.30737567,1.1478707,0.16654739,3.1725791,1.7215426,-1.4760444,-0.88522959,0.12206717,0.41812012,-1.4561584,1.3490324,2.5123479,-2.020529,-0.35794947,0.26200074,-1.0562887,-1.8348925,0.76055181,-2.8025541,-2.8497207,0.51674145,-0.43695202,-0.13158225,-0.31138387,-1.8093718,-3.9441457,-0.897479,-1.2528043,-0.10793118,2.7831793,-0.15784757,0.65615642,0.69641691,1.0904539,0.39776984,1.982688,3.1269214,0.17210123,-0.51062381,0.27537733,0.99322796,2.2271829,-1.4802094,0.83509344,-1.355904,-0.017830327,0.16309541,1.6013865,1.9272493,-0.95149726,1.5721682,-0.66546404,-0.32963482,-0.59553027,-0.41170073,2.598434,4.0661206,2.5100307,-0.30064762,2.248034,1.2199713,-1.3101701,0.54387408,2.1424289,2.6813004,1.9675195,-3.1469815,0.665398,-0.8485955,-1.7544923,1.2873785,-0.44473061,-1.5317076,3.5768728,0.82638198,-1.3790003,-2.477658,5.9340448,6.2895145,6.4855728,6.047749,6.4907665,5.06742,3.567307,4.6125908,0.40234482,0.53076822,2.5677834,3.7924807,1.7385948,-0.5200159,0.21875618,1.039068,0.68839818,-0.69465172,1.3717144,0.81633222,2.1749215,0.68776166,0.19455276,-0.66484368,-0.91676664,1.6271684,-1.1170338,-3.1803617,-0.58351755,-0.14636329,1.5516995,2.253391,-0.28520414,0.32513401,0.11078854,-2.1768031,-0.86306554,1.2478021,1.4627368,1.6646312,-0.3334983,0.03804756,-1.0316278,0.092799798,0.51619458,0.71098793,0.96372545,0.6480844,3.303201,-0.67228216,-0.13981625,0.67901802,0.84625626,1.7575971,-1.6616189,2.5545785,0.13677743,1.0045841,0.49677685,1.9271411,-0.15582764,0.5107668,-0.007318194,0.44654047,-0.43685055,0.56271172,0.033012703,-2.2826545,-0.73645687,-1.1386755,0.68476981,-0.86414546,0.82973021,-0.1463498,0.51518589,0.84660447,1.2966515},
{-0.98274976,-0.24920274,-0.1285636,1.2842155,0.68917221,0.66944873,-1.7629595,-0.16964698,0.77314037,0.3001442,0.28037709,0.50313509,0.25220439,-1.1658255,0.36840037,1.3454386,-0.069072507,-0.30252111,0.26483017,-1.2599325,-0.92185348,0.70181197,-1.1027458,-0.6372171,-0.68236887,0.21294214,0.4744921,-0.51945013,-0.94936138,0.6500107,0.95310354,1.7574086,0.22897342,1.3199741,-0.54338098,-0.66600019,-0.30869973,-0.4571647,-0.34009895,0.053553294,-0.7705512,-0.36927217,0.29298535,0.48990831,-0.51238048,-1.3171284,-2.4570086,-1.0628101,-1.3153094,-0.73048007,0.42992863,-0.61744964,0.044183809,-1.6545699,-1.6938297,-0.68650353,-1.0172974,-0.21714167,-0.76107854,-1.0576575,-0.081556469,0.39482573,0.07539995,0.98913205,-1.1825266,0.45684835,2.3582232,0.48015797,-1.5363849,0.91266859,1.9158015,-0.053109158,1.6574705,-2.5912631,-3.8041143,-2.0844724,-0.71331477,-0.36648035,-0.73816592,6.5481877,7.4396148,0.36723143,-0.66775012,-2.6652296,-0.22158512,-1.0159445,-1.0445907,0.60658407,0.53086382,0.089762077,0.29831687,-1.4501231,0.83188862,-1.046978,2.9354787,2.6711507,2.0833588,3.3108015,-2.9245131,-2.2255282,-0.42441204,-2.3269286,0.75088578,0.01580146,-0.59358168,-1.2292624,-3.2366977,3.2044265,1.5676759,-1.0113174,0.055728372,0.79724085,-2.3430212,-1.2659558,4.675086,0.618424,-1.8218396,2.8116906,-1.3049353,-1.2061517,1.79208,2.5325453,-0.45970777,0.092544094,0.019808328,2.0269363,-0.796058,0.25738773,-1.4047265,-0.87111402,1.9618406,-1.2014706,1.0339085,-0.032233503,-1.9999202,-0.25679615,0.19752479,-0.55256915,-0.03866237,-0.39598331,-0.068164788,0.91643637,5.5620427,-2.9701955,-3.5994239,0.59054655,-0.43522805,-0.030697735,0.23606555,-0.41821581,-0.14394835,-1.2804277,-1.9083709,-0.74985397,0.092277557,-0.58003134,-3.5004764,-0.79393828,-0.03296034,0.34353963,2.1800835,-0.29464445,-1.1861302,-1.3087173,0.6271888,3.0020292,0.94475836,-1.0173135,-0.3142252,1.4499834,6.8762279,-1.4351964,-0.64281154,0.27166092,0.012629762,-2.1336737,-2.7048256,0.32099748,1.019738,-2.5188034,0.88752633,-1.1968038,-0.67128509,-1.2215512,-0.78222561,0.071229488,0.90055335,1.2114549,-0.49606121,0.17924973,0.64107388,0.67750394,1.3274781,3.4915099,-0.0259404,-0.400419,0.57163739,0.40518522,7.0373778,-0.38313481,2.0128224,1.5199875,1.7449112,-2.7381697,-0.99254924,1.3839936,-1.2743688,0.21328616,0.31133312,0.83147252,-0.6688565,-0.44802281,-0.25871539,0.76329374,-1.1643997,0.78476918,-0.72480422,0.16152486,-0.82374036,-1.4609287,2.8623037,3.953692,-0.67092466,1.7541949,-0.98466074,0.061268412,4.8429317,0.61903852,1.0243416,1.6994305,-1.4087144,-2.5142081,-1.8749143,0.18946137,2.6244226,0.45218879,-1.4439367,-0.49928948,-0.5454337,-0.8176595,0.28564847,2.2515559,-0.74599367,0.48031226,-1.8685335,-1.1528234,-0.0034669894,-0.53533512,1.6746616,3.6859362,-0.47916782,-0.30139259,-0.70900697,-0.45886192,5.2742386,0.91832644,-1.1338904,-2.3758099,-3.1789031,-2.5551262,-2.4496517,-1.5995121,0.050955251,-1.5154841,0.28351051,-0.42026278,-1.9047048,2.0826192,-0.58121109,1.3886896,-0.66162515,1.9361506,0.43299279,-0.70354986,-1.8643225,-2.2792151,2.689621,3.552346,-1.5097471,-1.6916679,0.12680544,0.13429871,3.9646959,-1.7014898,0.25628519,-1.4512275,2.3412533,2.5299225,1.24347,-0.58748031,0.637954,-0.025524292,-1.554879,0.68599886,0.80674112,2.1002145,-0.19511433,-1.3721074,0.77027673,0.93963307,-1.2608919,-0.50819063,-1.3847601,-0.73413467,3.6048076,0.58863121,-1.3340163,-0.58492428,-0.12426326,0.23568252,8.8906107,-2.7315514,-1.5641754,-1.2788917,-0.26014361,-0.87199223,-0.77125961,0.39738068,-1.3736542,-0.36577198,1.0622669,0.74771595,2.247185,0.49508223,-1.0192912,-0.13597636,0.71142101,1.3981597,-0.21508603,-1.9061409,-3.3371522,-0.89835292,3.0705471,0.70559114,-1.6474447,-2.0928628,0.23932496,-1.4904813,6.2201128,-1.5364639,-1.4882396,-2.4684241,0.95016748,-0.41321862,0.7237131,-1.9150509,0.098773845,-1.3458174,1.0992259,0.21615252,0.44935295,1.3016155,-0.74090195,-1.9634517,-0.29632658,0.37793702,1.4685249,0.78962481,-1.9042306,-0.21826604,0.014238146,1.3752671,-2.4325604,0.87923509,-0.4169645,0.59834719,4.920887,0.5466764,0.44624588,-0.7992965,-1.4263926,-1.9305443,-0.60022807,-0.72238433,-1.2864096,2.5824955,-0.11832891,-0.95073473,0.5636279,0.14626332,-1.1017501,-0.37336332,1.2883009,2.4111459,0.20862153,-1.2559907,-0.25981662,0.5097084,0.55494082,2.7878537,-1.9846917,-1.4377389,1.1214589,1.2633286,2.1427283,0.15795574,-0.72120398,-0.51611298,-1.221645,-2.1815534,1.360404,-1.5318537,-1.7594076,0.34900472,-0.35808447,0.85572469,-1.5751789,0.96178871,-4.038816,-1.203563,1.8477579,-0.50867641,-1.1023544,0.61031789,-2.0059705,0.13131915,1.081632,1.8382467,-1.1039305,-0.74687594,-0.47987342,-0.29599968,-2.2422369,2.0624115,-1.3631372,-1.3154945,-0.8269673,-0.33295053,0.40710959,2.0914235,-1.1976174,-0.63066232,-1.43018,0.11283402,0.087923624,-1.8037753,0.16813764,-1.0876371,2.170938,0.5412913,-0.24116495,2.22683,0.23290609,-0.2248174,1.9378844,0.67926037,-1.6606328,0.13458616,0.42945784,-0.58175093,-1.737087,1.7181947,-0.058534529,-0.88341409,-1.0861453,-1.8919493,1.1618191,-0.61355108,-1.6167582,1.4423703,1.9899564,-0.89154595,-1.839,-1.6766323,-3.4536858,0.30355591,0.16801131,-0.48184663,-1.176191,0.9785735,0.44983205,2.3654907,0.98902583,-1.9600905,-0.8687104,-1.215209,1.791893,1.0790962,5.8658471,-1.0680958,-0.56554973,-1.1387107,0.46199384,-0.099939264,0.60843843,-1.5895718,-2.3850832,-1.2564471,-0.20697327,-1.7525851,-2.1336014,-1.9466318,-1.010524,-0.25866258,0.24849226,-0.19286074,-1.5882521,0.22256176,2.0662665,1.6755626,0.71115899,1.9601579,0.040336691,0.034854256,0.068717331,-1.0952655,5.7161922,1.8322365,-1.4764172,3.0146117,-0.44413587,1.5471767,0.0059652994,-0.84601206,-0.16065736,0.27130172,-0.77575898,-0.63048899,-3.1316285,-2.524339,-0.011036781,0.77702916,0.90866691,0.67322904,-3.6790824,0.77327651,0.6683017,0.36404178,-0.90895355,1.1393605,-0.50146574,1.4819326,1.7161764,0.85575074,4.1140394,1.0608513,-2.9455152,1.2398463,-1.8041445,-0.81406838,-1.5145404,-1.0039876,1.5678204,-0.46650121,0.32826737,-0.20702416,0.64988852,0.42529851,0.23952685,0.14127465,-1.2126288,-1.0748719,-0.11891446,-0.26414344,1.0992813,1.4429485,2.5057614,1.5237787,1.5622869,2.2264369,2.57863,-0.97230828,4.9618926,0.98069024,0.31888038,0.40479857,-2.974438,0.44864467,1.4496654,-0.087367229,-0.13562031,-1.9853307,-0.25974044,-0.27339655,0.54142684,1.7132782,0.77887374,-0.3282896,-1.9139857,-2.4686244,0.11038376,-0.46334046,0.52220917,1.4732683,0.0094233919,1.6231825,-0.86703503,1.4905521,-0.65825069,-0.83099824,2.7743797,2.1064651,0.25214559,0.0032573075,0.042474255,1.878669,-1.1422865,-0.18681043,-1.4538671,1.3503991,1.5608003,-1.0085729,0.73848516,2.0104003,-0.56423718,-1.0453129,-0.55152035,-0.18455213,0.071036518,-0.95801502,-0.026745191,3.2210889,-0.21977857,6.2685513,-0.28918576,-1.5056874,0.046961233,-0.42308959,4.7552099,0.43684915,-0.36360523,-0.63131779,-0.44939747,-0.32453889,0.30846325,-0.6845085,0.012613358,0.27335545,0.64884013,0.3943063,1.170272,-0.89118719,-0.20490493,0.28536338,0.81506324,0.43135673,1.0887337,-1.2152861,0.13490707,0.96180278,3.0516541,4.9769707,-0.83024389,-0.85178399,-0.93092328,-0.15102129,1.0470918,0.88718802,3.4282715,0.48733017,0.94044775,-1.1211942,-1.3727101,-1.1421368,0.38096473,0.75230426,-1.7280259,0.7235055,-1.965656,-1.5451452,-2.3709288,0.96328688,1.5198289,1.3418546,-1.7146279,0.21791445,1.0962569,0.83370697,-1.7181132,4.0596142,1.17828,-0.89235634,0.39652044,0.52024788,2.0054226,-0.19525599,-0.23186685,-1.6941741,0.74974966,-1.5962136,0.80151987,0.28780097,-0.31846613,0.80370438,3.8195207,1.6167758,-1.1705372,-0.23262431,6.5360613,4.839221,-1.6804503,-5.8907475,-4.2509022,-3.5690978,-0.05401738,-3.5432422,-4.9332376,-0.67061478,0.51324469,-0.12428222,-1.4830486,1.2854142,1.156181,-0.41421634,1.4713576,-0.035737105,1.5243509,2.3441343,-1.4081649,-1.4666817,-0.14235528,2.317965,0.6144945,1.2382259,-0.16800353,0.85267144,0.31922951,-1.8526419,1.3383256,0.42143685,0.79409254,1.7198881,0.30176389,0.32024908,-1.7021687,0.29160413,0.70631951,0.13691999,-0.70610183,-0.35233647,-1.0949465,0.996997,-0.0044739256,-1.1483945,2.2354863,-0.39925039,-0.36437672,-1.5906649,-0.30706742,0.94947183,0.91891736,-0.30447772,0.49050516,0.10934842,0.9059518,1.9491023,-0.10118318,-1.1403713,-0.3278611,-0.60512197,-0.46757042,-1.3458984,-0.89381999,0.89659435,0.76465029,1.4455869,-0.60920948,-0.96654487,-1.0940894,1.221519,0.9219898,0.92895889,-0.20768179,-1.0586445,-1.4638442,1.1143414,0.67597103,0.77017123,0.14560167,-0.30161616,0.60729605,0.20490205,0.20498674,-1.5738171,-1.1162057,-1.7065581,-1.9643583,-0.8697207,0.5445528,-0.98633236,-1.0666932,0.71122736,-0.93157709,0.15640588},
{0.57419163,-1.4737791,0.87687641,0.051094167,0.13127804,-1.2313501,-0.23891789,0.59430301,0.86092985,0.97768122,-0.5302096,0.5015465,-0.83516312,-0.44082686,-1.226371,-0.79450268,-0.61098886,0.11283614,0.37007391,1.4438413,-1.0684046,-0.93704867,-2.3935633,0.3097901,0.21207552,0.51204616,0.2287537,-0.28342643,0.57762629,0.12286158,-0.48053613,1.0803137,0.54559791,-1.3156229,0.85044539,-0.1241051,0.55210203,0.32299376,-2.7616725,0.28954887,0.40117839,-1.1367353,-0.17605209,0.48616233,0.63094562,0.40581751,-0.15643165,0.61138183,0.74554908,-3.5120535,-2.0052524,0.13871296,-0.87694293,0.28584585,1.0071958,0.38463697,1.088465,-1.2729285,1.5274215,1.4985384,0.67807233,0.41947541,-1.6468642,0.1309741,0.30385566,0.24675269,-0.62707502,1.504971,-0.83856094,-0.12855558,1.7288883,-1.3278378,3.5506177,0.48089892,3.1635361,-0.17486921,-0.75085539,-3.1227736,-2.4467022,-1.3068485,-2.4772296,0.79675341,1.823645,0.94113493,0.03760732,-1.460351,-0.50694239,0.41921359,-1.0405422,-0.54880774,-1.0569005,-0.76491779,0.25902927,7.9037728,3.6176436,-3.388818,0.17476101,3.181581,0.42671496,1.4212192,-2.5172958,-3.2628069,0.0014743567,1.7148805,-1.4884427,-1.2935026,-2.2358141,2.0770395,0.22658247,-0.14362568,-1.2439808,-0.056780234,1.1938956,1.4618715,0.65295488,0.31035006,0.021785205,-1.0784419,-1.5604572,1.4094926,-2.1713562,2.7389586,-0.86106354,-0.91245186,1.4211756,0.14616843,-1.8874767,-0.4326115,0.19733244,1.3149006,-0.4071008,0.87650782,-0.47028953,-3.2788117,-6.3183799,1.9261461,1.2089827,-7.5564494,-0.45131117,1.4266058,-0.21197124,0.64416093,-0.63888794,-0.06670551,-1.6840606,-2.1798799,-1.5419871,-1.5814353,-0.76874048,-0.63853198,0.60897201,0.77450913,0.23917437,1.7798924,-1.3273202,-0.39703995,0.09395206,-1.1159526,-0.38553879,0.50058144,2.0479596,0.64536589,-2.3280969,0.80917543,-3.4451911,-0.11308533,0.28855094,0.8369835,1.2864323,0.093170524,-0.33485392,0.63714689,0.7518062,-0.66690904,-2.5590041,-1.4667848,-0.42160088,0.85821038,-1.4833814,1.7645979,0.013325346,0.14734083,1.062905,1.9888426,-0.26599583,-1.5773129,-1.5606924,-0.88725644,-1.2501277,-1.8120472,-1.4380455,-1.1153619,-1.0819014,-5.9504547,0.89416891,-0.49851489,-1.0673515,0.029596854,-0.98378921,-1.1905587,-1.2312646,0.63033605,0.62716621,-0.4082225,-0.040062349,-0.64903533,-0.67695719,0.96853679,-0.53828949,0.88540626,1.108977,1.1452157,0.33892229,0.88324594,-0.45244282,-1.7204661,-0.70780754,0.15739094,-0.96754313,-1.6875842,0.54927921,-3.8963237,-0.077930875,0.29237378,-0.94357204,0.81295651,-0.10130408,-3.2771368,-0.082576104,-1.7436221,0.52704495,0.98751736,-0.96445638,-0.96034873,0.32289147,-0.28895044,-2.0551887,-0.25199023,-1.3960526,-0.60289752,-1.4504761,0.69537491,0.58657426,1.0350218,1.3095785,-0.24899419,2.1195056,1.4701909,-3.6832016,-0.82718307,0.40819931,-1.0005953,0.72541285,0.14922036,-1.2909797,-1.8254743,-2.2928541,-0.07513205,-1.0640397,0.96348292,-0.054363448,0.09477286,-0.055777963,0.27477038,0.41737264,-0.66782641,0.46006554,0.59165633,0.13299452,-0.51333177,0.71858639,-0.59581697,0.59517884,-0.37806392,0.30254591,-1.2948806,1.0870286,-1.5426826,-1.425797,-0.32933316,0.23875776,0.22891106,-0.59484529,-0.48782837,-1.2648507,-1.9255669,0.89429766,2.5236928,-1.0036548,0.5500325,-1.6435742,-0.2124356,0.011311214,0.39189866,0.016010255,-0.28790393,-0.64658248,-1.0092052,1.2751379,-0.077758163,0.96970832,0.91686779,-0.96233696,-0.78055316,-0.16913824,3.1602237,-1.8805828,-1.055886,0.31302854,2.160759,0.14068781,-1.8710064,0.0792512,0.48434201,0.71370006,-2.2168233,-0.17185274,-0.64465505,-0.99638593,-0.64540595,-0.8422271,0.094354063,-0.67165524,-1.8328675,0.3233839,1.199366,0.40856031,-0.22275709,-0.43919519,-0.016420387,0.93168598,1.2604834,-2.3762541,2.7008617,-0.062543556,-1.703265,0.060944118,1.7575465,0.98158532,0.74936223,-1.8576639,1.4299355,0.80580556,-0.57162714,-1.8600088,-0.48296162,-0.55586863,0.54742664,1.741838,-0.089387454,-1.2714788,-2.7200279,0.40753803,0.42739925,-1.4046924,0.72104424,-0.87056005,-0.94808894,0.30523473,0.33426446,-1.2332834,0.48859677,-0.38786528,0.16685313,-0.49149323,0.19674826,5.2088671,-0.60775471,0.39284587,-0.45018509,-0.59996051,0.15673277,-0.81916142,-2.0335724,0.48135516,0.49523753,-1.112566,-0.27756047,-1.7110393,-2.7808998,0.32611847,-1.9707716,0.15250854,0.072574005,1.3318464,1.048316,-0.68338311,0.39417225,-0.19038528,-0.92309326,1.1312226,-0.29189327,0.48029926,0.4104864,2.4796815,-0.47128984,0.86323148,0.26479712,-0.64690071,-0.418661,0.51486087,0.65542102,-0.20670611,-2.364846,-0.41367725,2.3343258,-0.93443841,1.4748636,2.9026148,0.19375564,-0.36374006,-1.9801507,0.47839329,0.58838499,-0.76460218,-0.86463964,0.40642309,-0.36707571,4.1182747,-0.44696915,1.2769806,2.7108657,3.577683,1.3612461,1.8051958,0.8904987,-1.4621551,-0.77911454,-1.1634758,-0.37524679,0.35570475,0.86217755,-1.1562711,-1.7275929,0.95136464,0.024077697,-1.1979192,0.69201708,0.96821004,1.1384914,0.82301009,2.1543562,0.47677866,1.3623965,1.0153593,-3.168607,1.2568896,1.1185012,2.3764889,1.9060862,6.0610733,1.86509,-0.30166441,-0.52788365,0.44490442,-1.0126661,-0.13681419,0.71234614,-0.59353942,-1.6918678,-2.5139515,-1.0003157,-1.7031356,-1.1577171,-1.6336652,0.55903167,2.5449517,-1.2424036,0.3060604,0.3079626,1.883497,-0.91803551,1.2049122,0.35186711,-4.477951,0.81632388,-1.0849638,0.19780926,4.0636592,2.1225584,1.1904721,0.5698545,-0.19568124,-0.83491576,-1.3560771,-0.9954254,-1.736755,0.16591763,-0.039155915,1.1408846,-1.0331706,-0.11069158,-0.23743638,0.2987695,0.24865629,-0.17312546,-0.53956944,-0.64762419,0.1432133,1.2496167,2.9255872,1.371112,-2.1853554,0.92296952,-0.79927576,-0.35115275,3.0439084,-0.16453607,1.3778204,-0.35639974,-0.97940105,-0.54568106,1.2604148,-0.070888057,2.0763345,0.74209511,0.77145368,-2.5012648,-2.1847625,-1.2061882,-2.3104575,0.72860843,0.019895537,0.65996182,-1.8954896,-0.0062333145,0.77931839,2.0949166,2.9968286,-2.4739449,-0.084458686,0.75656426,-0.79106736,-0.70764822,-0.74383855,-1.7364417,-0.51197636,0.78571022,-1.5405446,0.46271417,2.2475801,-0.37450886,-0.44755322,0.18142404,0.11499171,-0.69314182,0.38657331,0.046924923,0.16497983,0.81223232,-2.41289,-0.65194905,0.072807662,1.1808543,1.4197295,0.65595627,2.620019,-0.37981126,1.085032,-0.64711928,0.92639339,2.7072537,-1.7468064,-0.62503958,-0.37650803,-0.11471656,0.50730777,0.833713,1.2854589,-0.9773823,0.78179443,-0.93620592,0.67468357,0.41260028,-0.18852723,-0.36598417,0.082084954,-1.6960129,-2.0921533,-2.7381337,-0.73280138,1.9962292,2.9070673,0.073378749,3.3604507,2.8755054,-1.4752811,2.0425463,-0.29692799,-0.16835992,0.36712861,-2.7579243,-0.25076577,-1.5123196,-0.037194584,-0.018197494,1.1913651,-1.888568,2.5417936,0.30939156,-2.3911507,-0.51160973,-0.73566473,-0.12744905,-1.3988452,-1.1689233,-3.1721745,-2.4805253,-0.15723535,-2.3250909,-0.43524247,2.7234344,0.34846812,-1.5437971,0.54130441,0.83684385,-0.87989533,0.75248837,0.41104376,0.7383607,-1.0769691,-1.4816453,1.1172087,-0.2097393,-0.27639186,0.84777707,1.4229531,-1.0249376,1.7630506,2.0445902,1.8289398,-0.18949188,0.55819309,-2.3894076,-2.0733652,-1.3246334,-0.77554274,-0.47283599,0.40164426,0.22982635,-0.23146179,-2.5938807,-0.074414037,-0.23464093,1.0752701,-0.44128251,1.9420621,1.0027723,0.2958917,-0.57170612,-2.3127089,-1.3203921,-0.039419599,1.5927789,0.78063816,-0.48595694,-0.99836504,1.0324602,2.8147948,-0.90329486,-2.1128523,-1.0646467,1.3662015,1.6941739,0.16032495,-1.003294,2.6114442,1.0560681,3.6155198,0.70160627,-0.55590534,-0.95386302,-0.46841019,0.14739853,-0.062900819,-0.66459423,-2.0624812,1.4419433,-2.767909,2.5322895,0.28221816,1.9162649,0.3153744,-1.4744021,-0.87526584,1.5044547,0.30766815,1.9262114,2.8289995,2.6971509,0.76554024,2.2505817,2.6513999,0.07044857,1.6706754,1.0223992,2.8276186,-1.9326793,2.2185497,-0.8622067,0.41330826,0.44361061,0.13630794,-0.95322734,0.37946182,1.5716369,-0.23162861,2.3047373,-0.34498608,2.5850143,-2.0628095,-0.55059373,0.53204542,-1.2823886,1.0584593,2.8718305,-0.51747376,0.78819895,0.75253499,1.612981,0.43846148,0.42080855,1.145862,-0.28007919,-0.50030017,-0.40621069,1.9673387,1.0167599,0.64302325,1.3732769,1.9064486,-0.99704927,-0.19034819,1.7286971,-0.68963408,0.85660928,1.7917768,-1.7040145,-0.31491223,0.31346118,-2.3126132,-0.47701195,-0.53748006,1.075592,-0.38199297,-1.4871216,0.76590663,-0.93873769,-0.61714911,1.040224,0.27418137,1.5738919,0.95166588,0.77269226,-1.5572714,-0.28762737,0.1478969,3.0231168,-0.36632845,0.46416852,0.22907218,1.57822,-1.4803908,1.373372,-0.876724,0.99032283,-0.76604658,1.2430314,-0.13729663,-1.1848567,-0.27455738,0.65153277,-0.21326715,-1.7323205,1.9546009,0.0011181134,-0.44410276,-0.33012918,-0.17233537,1.2594535,0.25409552,0.49732345,-0.79084009,-0.68019849},
{2.1282732,-0.59273827,0.37037525,1.2200333,0.31825218,-1.4755881,0.15979327,-0.21172495,0.011048415,-0.59594965,-1.3221737,-0.67902845,-1.2004491,-0.26220775,0.80873632,-0.72477293,-1.1489171,0.33348346,-0.32195491,2.9056263,0.36355537,1.4891123,0.70589054,-1.3813304,-1.2677304,0.50602514,1.4468704,-0.62080675,2.1527219,0.24325791,1.2049047,1.4710014,-3.855989,-0.24939886,-0.44506031,-0.27558365,2.1302288,-0.52909195,-0.21693096,0.012797715,0.81046623,0.2376316,-0.86893338,1.3973143,-0.75532538,0.89978158,0.92078888,0.015870614,-3.2249184,0.49317369,0.1749707,-3.4438772,-0.28764048,-0.54589492,0.9466877,0.41661844,2.0652618,-0.64683998,0.89228201,2.5288146,5.0497026,8.4834194,-2.9172146,-3.3297253,-2.9992161,-1.3999614,0.82602441,-0.27150208,-1.0935669,0.51941848,-0.71190673,0.89416713,0.80982733,-1.8357409,-8.31985,-10.063617,3.5541916,4.4613819,2.2817183,-10.951374,-13.966739,-1.2427781,-1.304042,0.42203325,1.5284482,0.85900754,-1.2617975,-5.9025941,-5.4526048,-0.67012233,1.3057529,0.23872241,-0.057740003,1.95004,-1.041994,0.10034296,3.7068994,-2.9648774,-7.6934271,-4.8599906,-1.7906103,1.2477249,3.6111319,2.7494285,1.6477307,1.7542863,-2.6101992,0.052393977,0.19579071,2.9310102,-2.3692336,-0.61837482,1.7185622,-0.38716385,2.490582,-3.1076198,-0.088730633,2.4061875,1.1983974,-1.8850225,-0.72838116,-0.39756054,1.2431712,-0.073540814,0.081910141,4.6724014,0.28065929,-1.4482058,-3.2610877,0.045928393,0.94646525,0.39737117,0.49150252,0.72974092,-1.1898246,-1.409853,-2.1161406,2.3868675,-0.88784367,0.62181717,-1.0555211,-0.22078151,10.997746,1.3464965,3.4564118,2.8186226,3.5651286,-1.2226642,0.98967069,1.9382489,0.89323622,0.13939157,1.4668518,0.14976327,-2.1431036,-0.3504855,-0.89201111,-0.026726047,0.74049449,-1.1017963,-0.92402738,0.80606121,-1.4856848,-1.5674899,-1.0277603,-2.4597292,0.77823651,-0.77322304,-1.1267763,0.6858415,10.984134,-0.24099395,2.9237766,-0.32217461,-2.8652861,0.80289298,0.050108146,-1.7485144,0.97785503,2.4453146,0.16180061,1.425499,-2.6488938,-1.3035495,0.78742111,-2.2173941,2.3700647,-0.95489758,-1.0468612,-1.224098,1.1094913,-0.87667024,0.79871482,-3.5395579,0.71190065,-1.2078341,-0.30601335,0.55081987,10.889149,-0.98821187,0.5081557,2.5012155,1.7683301,1.9151515,-1.0578033,0.82332623,-0.80037093,-0.29555121,0.16065082,1.4716562,-1.7606589,0.41473433,-2.4053202,1.5860204,0.074781924,-1.4499772,-0.34424266,-0.82825416,0.3507522,-0.67958647,1.4848504,-2.65874,-7.7182474,-0.69342512,1.2765583,0.36655459,7.9766917,1.5556892,3.5902665,-1.7734282,2.1064384,0.31059262,-1.0095896,-0.29469469,1.7359878,-2.4272909,-1.5585939,1.2111902,1.172055,-0.20263425,-0.0053427336,-0.12000689,0.95310611,-1.324501,-0.016583737,0.51188439,0.84149373,0.24906051,0.4678311,6.4513602,-6.684638,-0.53405046,0.24020401,-0.056135092,2.3306077,0.19664946,0.37794104,1.4686135,0.983684,0.28634077,0.43463841,0.63993865,-0.56088912,0.1342068,-0.78452605,-0.41106072,-0.26382706,-0.12611964,-1.2110701,0.32249847,0.10041947,-0.60308462,1.7420253,0.88113427,-1.555317,-0.79303312,-0.9824872,-1.3666315,4.9741049,-1.7911652,0.38316664,0.42704141,-0.97813004,-0.33931655,0.26538777,2.6415851,-1.5845214,-0.41564873,-0.65039015,0.76897246,0.86333704,-0.48643523,-0.24206083,0.35218623,-0.074131034,-0.29174888,-1.6743684,-0.57668775,1.8086963,-0.30116594,-0.38158071,0.076952055,0.42884251,-0.78469396,-0.19631423,1.3209968,-0.78950459,0.9047631,-0.93814754,-0.98942882,-3.9971826,0.18894266,0.81112444,0.03933068,0.48456165,1.3578438,0.23724014,1.4482162,0.24101241,-2.2179027,-0.22236142,-0.42574999,0.26821101,-0.38062912,0.495868,0.22749148,-0.20863608,0.47799069,-1.8042305,2.9087975,-0.22267459,0.19489567,-0.23352256,-0.57790154,-0.64150816,-0.10652966,-2.9282346,-0.14311571,-4.7000656,0.40419444,-1.9951539,0.54315472,-0.023525503,0.91739726,0.23843589,1.5691185,-0.63613117,-1.1054373,0.47303975,-0.16743663,0.7824772,-0.50938046,-0.6475184,0.050916713,0.16593906,0.58094853,-0.69877142,0.038767949,1.085207,0.7204029,-0.57552177,-0.20596738,-0.063783601,0.69575328,-1.7219685,-2.3297286,-1.3684065,0.49220097,1.0214858,0.32329208,-0.30062446,1.1747918,-0.66737944,0.56542116,0.23139806,-0.0040746434,0.37950471,0.69235617,-1.0648361,-0.88158166,-0.35132229,-0.52176636,0.1362267,-0.1989805,-0.61246228,-0.43084228,1.5120959,0.42779443,0.81997639,-0.33231652,1.9080195,3.6432309,-2.6388402,-0.54968929,-0.18471858,0.90136665,0.59289336,1.1195576,-0.022461155,-0.14440916,0.83731407,0.4188638,0.37164697,-0.48139504,-2.5715508,1.4755286,-0.52969676,-2.4827483,0.11627155,-0.3062664,0.094324216,-1.2964737,-1.9205936,2.3357382,-1.3908887,-0.56800872,1.2522869,-1.8583736,2.5476115,1.2830131,-0.4553394,-2.6857858,3.5089991,0.5870859,1.200462,-0.3106491,0.06225343,1.1894196,0.10805597,-0.24187608,0.29759219,-0.96443725,-0.38189623,1.4132072,-0.2844778,0.034851354,0.023627708,0.42219114,-0.24463722,-0.18149969,0.21204619,-0.17519589,-1.9716799,0.56972283,0.85123551,-2.5676632,3.1287577,3.2095215,-2.8695998,-2.1499131,-3.7859204,-0.496759,-0.166695,-0.015573912,0.78606611,1.2394615,-0.23154977,-1.4824617,-2.2336519,0.88796061,-1.0244781,0.76675498,0.28058049,-0.23801492,-1.034459,-1.761286,-0.049367573,0.18146846,-0.89119995,-0.22545928,1.6274974,0.91944838,-0.32449442,5.8199687,2.1507516,2.2583723,-0.71946549,-0.67926061,-2.2955222,3.2908535,1.6383395,-0.88700074,1.7089761,0.2043834,-0.55631042,-1.6567525,-1.8910593,-1.7532618,-1.914184,1.1726285,-0.60419142,-1.3645226,-0.15218286,-1.0304345,-0.53736496,2.9372871,-0.39567399,-0.58290172,-0.29759908,0.60994279,-0.70198083,-0.036420591,0.051891726,1.2951169,0.54971075,-3.1012449,4.6299772,-0.74507231,1.3593093,0.41409791,1.1587878,-0.29355964,-0.53906113,1.3492997,-3.0212016,1.3256623,-0.17721666,0.65745455,-2.0620234,-0.4991937,1.1696426,-1.7782434,-1.3340394,-0.54512668,-0.8612597,-0.29275194,-0.69293082,0.55997473,1.2031364,-0.22407182,-0.43548328,-0.63115954,-0.19252326,-0.5657903,9.2422495,-1.9546708,0.32325768,0.31345171,-0.027705258,2.6701787,-1.2189867,-2.523273,-3.0481555,-2.4876919,0.95607954,2.4065328,-1.0243144,-3.2019532,-2.217777,-1.4001721,-0.3706744,2.4196143,-0.058180507,-0.47601828,-0.094173104,-0.76346511,-1.3803517,-1.6005965,-2.0660992,-0.2935428,-0.91550112,-0.57391411,7.6318607,2.0981109,-1.2181548,2.1744115,2.2198668,0.33922073,-1.1384034,-0.83173233,-0.39701003,-6.1577134,-1.1105244,0.83968723,2.2083101,1.5053786,-1.1104437,0.73358488,-1.6758959,-0.4167155,-1.0260144,-0.89915699,-0.79719877,-0.33780307,0.47597259,-5.1227131,0.62911922,-0.14830804,-0.96175188,-1.0514358,-13.383664,2.3346322,0.49252048,0.36781436,-0.028409915,1.2384379,0.1703604,0.23625882,-1.4036678,-3.7136381,0.68887109,-0.52624685,-1.2303536,-5.1729741,-0.85549307,1.0613613,-0.80257905,-0.1136677,0.15927207,-1.803798,1.9268991,0.18725558,-2.6833341,-4.9568191,-0.97222954,-0.95147049,-0.40206307,0.18170123,-6.6366806,0.77783763,0.9295432,1.3903748,2.0878031,1.963804,-2.5179429,-0.093118511,0.55824775,-2.3066242,-1.9825641,-0.364508,-5.0092502,-12.006882,-3.1035907,-1.4868656,-1.3162146,0.063884199,0.384294,-1.767469,1.9593539,0.85975975,0.40608287,-4.2638884,-0.75140566,2.0580282,-0.29920864,0.088759303,-3.4542241,4.181725,5.4380798,0.90838021,1.2556477,0.61277032,-1.4451841,1.6288881,-1.9433264,-8.95576,-2.9325895,-3.1821334,-3.3286562,-11.599826,-4.6118226,2.1692576,3.1462426,-0.6956079,-0.35352322,-3.4097598,-4.8890104,0.19324951,-1.1889676,-4.1444354,-0.27917814,-0.67901433,-2.2385638,-0.041546199,2.6077673,2.6934402,4.0337653,0.39029834,-0.21003757,-1.6102188,0.84017336,2.6394372,-1.4273777,0.6253863,2.036613,-1.7138296,-2.1553471,4.9003878,0.8079114,4.1498203,1.7024283,4.0921993,3.1673732,0.40977725,-0.25104535,-1.7548991,-4.8502865,3.9432857,-1.806445,1.2552649,-1.3882765,0.33129457,0.075306915,12.543015,-9.7207136,-10.168705,-0.96936786,0.11240888,1.6175307,2.5439579,1.4700809,-0.16153914,0.59028459,-0.037645493,-0.49483299,0.32564569,-0.029131223,-1.1472225,-1.5748686,-1.564458,-1.1747271,-0.13521232,1.1081502,-0.17667347,0.45719749,1.025303,-2.3849788,0.41586956,0.8962819,1.3008041,0.88267416,1.2231987,0.45814136,-1.387102,0.032245427,0.0087280879,-1.5921049,-0.41690195,-0.94175136,0.66451877,-1.0463021,-1.0216047,-0.96971965,-0.3753475,-1.0509498,-0.18860319,-0.70746624,1.0208931,-0.50007319,2.2890296,-1.0330832,0.42602986,-0.9853276,1.462238,0.26600829,-0.3277092,0.43498674,0.57147998,0.82628429,-0.39920077,0.17731473,-0.29950875,0.50680256,-1.8055999,-1.1926068,0.84115326,0.11266402,1.8487353,-0.77891505,-1.0170535,0.058796484,-1.4015023,-0.10088526,-1.4430119,-1.0034865,-0.36681977,-1.7520872,-0.59720731,-0.82239085,-1.2044132,0.55141407,-1.3413303,0.21611802,0.57145339},
{-0.25868556,-0.77661043,0.31801218,-1.2355944,0.95235574,0.95108366,0.37333694,1.5608244,0.14206286,1.131451,-1.2780869,-0.56716913,0.3845917,-2.0995014,2.3860571,1.4710914,-1.5868247,-1.0509329,1.2097976,0.75412732,-1.699576,-0.5863201,-0.032760452,1.0273284,-0.13605414,1.8723761,-0.17468078,-0.0047719893,0.39606932,0.55177927,-1.173267,-1.7562551,-1.3286482,-0.57011092,-2.3180323,0.79464495,-0.41326216,0.28470331,-0.96925282,-1.5912763,-1.5754955,1.1388075,0.3205308,-0.42184445,-0.68041241,-0.041056614,-0.75188506,1.1685392,-0.22904611,-0.94678032,0.70498765,-0.60810548,-0.14680409,0.72327864,0.38919413,0.089783601,-1.1984518,0.036290195,-0.91287327,-0.76933503,-0.22494791,0.37358868,0.22276776,-0.46884933,-0.0050774524,-1.0254172,-0.0498267,1.2946039,0.96962416,-0.30312833,0.92485946,-2.4353802,1.3038632,-0.45728293,-1.4581625,1.4134492,-1.5236728,0.74990529,-0.11771513,-0.64631939,1.2380829,-1.8893007,-0.18377991,0.59270859,0.099675767,0.72442681,0.53375667,0.26478523,-1.4468417,-0.86754447,-3.6009774,-1.2638688,-0.42587295,-3.5108442,-1.0817008,-0.46414259,-0.11385923,-0.51106244,-0.46980447,0.10605227,-0.96792424,-2.1485436,-0.36312994,-1.3882939,-2.058567,-0.25225112,-1.1173064,-3.9742327,1.417411,-0.99502748,0.45025584,1.1453084,-0.3659828,-0.59186214,-1.2998756,-0.83919811,0.61498141,0.93517578,-0.14728932,1.9795852,-0.58133656,-3.6073105,-1.9940294,-2.6580343,-0.23122209,-0.24435979,-0.76680237,0.22931278,-1.3451862,-1.6818005,-0.77138853,-0.25253293,-1.8163338,-2.3955951,-4.0850282,-5.3930736,1.3014765,-0.23165859,0.67261237,1.5099249,-0.84053659,-1.1061325,-1.5224457,-0.97174573,2.1616638,1.4361813,2.3403003,3.7075715,2.305115,1.55928,-0.72699821,0.4110122,-1.4194483,-1.29562,1.3958019,0.96625733,-0.55304199,-1.4233092,-1.4422404,-3.0092759,-1.0405452,-1.8589537,-3.28037,-5.8570852,-4.9863424,1.1118923,-1.4709281,0.73971641,0.12016364,-0.21800861,-0.9262659,1.4639716,0.27954245,-0.42355591,0.95234656,-0.44368908,-0.9346019,-1.6537371,0.23336773,-1.5716324,2.1868157,-2.2581692,-1.7435989,-1.2442213,-0.50508595,-2.7553546,0.40793201,-0.73964566,-1.7089359,-0.96319616,0.62922305,-2.0946264,-4.5836005,3.8256023,0.46121234,-0.7069971,0.61990035,-0.46057758,0.11159156,2.1761706,0.18190059,-0.24329169,0.52797264,-1.3837881,-0.9977473,1.0845317,1.3238339,2.7280235,-0.092407294,-2.7352185,-2.270864,-6.3734593,-11.663524,-6.490231,-1.6607605,1.3504462,-1.0509812,-1.4209474,-0.94339299,0.02672364,-1.122937,2.8735149,-0.73116904,-0.46813735,-0.77003986,-0.40616864,-0.93735802,-0.065116465,0.64126474,-3.5966146,-2.5858347,-0.78470522,0.039724104,-0.66785377,0.71084881,1.3793211,0.44741493,-0.33883572,-0.63271737,-2.6493075,-1.232546,0.33288029,0.75045836,0.21273986,-1.1228656,-1.4067144,-0.88621461,1.4494072,-0.27453047,-0.18447796,2.4139781,-0.031417821,0.75417936,-0.75014317,-2.2782574,0.33724403,-0.47553223,0.54662126,0.059230365,0.12654674,-0.23312251,-1.4822803,1.5379692,1.0353203,-1.5934607,-2.3166699,-1.0214356,-0.54888123,0.5165711,-0.59048396,-0.61465275,1.8103703,1.5216185,1.0876384,-0.90289372,-0.6614747,-0.87625659,-1.6599396,0.45538741,1.8897338,1.3113686,2.3026054,5.5373888,0.7035054,2.0902433,-0.7455337,0.010782446,1.1172018,1.0741503,-0.35782659,0.96536416,0.37436527,0.3348625,0.68661672,0.47268471,-0.72652507,0.9694941,-0.062851205,-4.3739157,-2.2797179,-0.69522518,-0.018711133,0.10316258,-1.8707201,0.16961104,0.95065784,-1.8311757,-2.524246,-0.58610904,-0.081184246,4.8313904,1.1811304,0.3227345,0.84895599,-0.32505047,-3.6539366,0.48202881,0.017184962,-0.018237231,0.7898258,0.71380299,3.7613177,1.0745211,0.068512611,-0.735457,-1.1422738,-1.5228064,-1.4003386,0.51885629,-0.66421127,1.1364437,0.74692672,0.044827435,3.0496619,-1.6346196,0.18370855,1.1729208,0.7679469,-0.19691737,0.12911054,-0.31210789,1.5684122,1.5688967,1.883369,-0.043403525,-1.9553589,-1.9133917,-1.3557074,0.87670237,0.36727411,-0.40848258,0.86925656,-0.13486801,0.075478166,-1.0429652,-1.4670856,2.0080826,-0.23688583,0.31214556,-0.38145652,0.40138429,4.2236576,1.1187248,0.958785,1.5721765,1.3268776,-4.1545277,0.60383296,-1.2575725,1.8492026,-1.0308945,-0.27788147,0.10083951,-1.3033057,-1.2642984,-2.6514976,-0.86710393,-1.9570876,-0.62172508,0.87839949,1.0817024,1.2848127,-0.49600658,-0.84086406,-0.39287212,1.3760574,0.85788107,-1.1471574,0.59884,-0.13246292,1.0773349,-1.1977123,0.95408773,-0.029096942,-3.6828671,-1.8069757,0.34156039,-0.75569689,-0.74095589,0.19987102,2.6530213,-2.1281259,-1.9988458,-1.0971011,1.1309834,-3.0419152,-1.9658062,-0.70039988,2.6200192,0.95786625,-0.37015036,0.43416077,2.4542007,0.34113294,-0.72659504,-0.0032003273,0.8789385,2.1308453,1.3101546,-0.3881762,0.5127787,-0.82879645,3.2729082,0.19060205,-0.48578674,-1.5900646,-1.5863099,-1.1095746,2.0259564,0.054670162,-2.4476511,-0.34001526,2.9974873,0.068496756,0.72317243,-0.22493662,-1.0165358,-0.92407423,-1.0742536,0.60598409,0.04584492,-0.55464113,-0.32087395,2.5099316,2.2227192,-2.1050975,-2.7379911,0.75478941,0.83042479,-1.8605645,-0.23848046,-1.4607828,-0.45421547,-1.9422666,0.71394819,-0.2862702,-0.4184477,-1.2717929,0.37085387,-1.4809443,0.29736045,-0.83315146,-1.6627512,-0.48615333,-1.3900809,1.7078403,-0.27015573,1.7751777,0.39386207,2.1785655,1.6440369,0.47510377,-1.8860695,-1.9305787,0.56861365,-0.90158969,0.18469562,-1.640541,-0.057354324,-1.3344717,-1.2524754,-1.7417252,-0.90486157,0.62668431,-1.2868537,-1.0113455,1.2540574,1.0019141,-0.10800923,-2.1792138,-0.62862951,0.71376234,-0.7103498,1.5102499,-1.8733407,-1.0464804,-0.69460529,1.9870965,0.00057645031,1.9330025,1.9467496,-1.5521671,-1.9978441,-0.62502694,-0.82615197,2.5881538,-4.1386528,0.33926538,3.2035608,1.9183722,1.3183814,1.2301915,0.62720913,1.701853,-0.53939378,-1.1846305,0.3009195,-1.1109356,-1.0787181,-0.17834038,0.15843257,-1.1661553,-1.5877886,-2.0297792,0.71867436,0.69940048,0.58016545,-0.1311283,-0.37561798,-0.94779938,-1.6162781,-1.0835556,2.5689654,3.6051598,-2.190902,-1.7875814,-0.39816847,-0.2871471,-1.2059309,0.7450099,0.41949663,0.69158274,-0.70079631,0.9470163,-3.1196446,-3.4508297,-7.4870415,-4.7144294,-2.3655796,1.3083594,-0.1788273,0.70695758,-0.10584911,1.2818625,1.5084528,0.65034282,-1.1455823,-3.1698666,-1.6998445,1.2316582,0.73883677,-0.12729137,-1.2000002,2.1510072,1.4436264,0.3648051,-0.23500656,-1.2120723,0.55024838,0.81213439,-0.050886914,-2.1859918,-2.6618021,0.17761929,-2.6435239,-1.2708862,-2.6414537,0.24419042,-0.85608542,1.8890064,0.19217008,3.652508,0.78210777,-1.5594615,-1.3334277,1.5598217,-1.1186485,0.30305615,0.38219491,-2.0264103,-2.8219061,2.4479547,-2.2099805,0.49141833,-1.0519574,-0.68516111,0.42309487,1.9474324,-1.4844568,-1.5404335,-0.59918851,1.2723781,-0.15494706,0.91727161,-1.8456743,1.6197743,1.7660002,-0.73548645,-1.157441,-1.3340778,-0.10885614,0.089159235,1.2416832,0.51992965,0.37846431,0.45163018,0.77675384,-1.2018548,-0.50648612,-6.4086361,-8.1982994,-5.3370943,-4.2946863,-0.96158004,1.7950809,0.30711788,-0.66464949,1.7203053,0.63888037,2.4586518,1.3902793,0.9367556,-1.1687248,1.6075716,-0.28037429,-2.2796338,-3.2944617,-3.9464781,-0.50726122,0.27084085,-0.11728974,-0.6202994,-1.6090313,-1.4785554,0.5482434,1.496218,-0.77062839,-1.8875723,-4.9519949,-4.2496977,-4.6960192,1.5257214,0.54730248,1.8223445,1.036867,0.50681001,2.6436903,1.1912262,0.71274281,-0.21189435,-0.33205155,0.85529888,-0.059222586,-0.96150929,-1.1352615,-1.9884458,0.26291597,-2.2292678,-0.86221546,1.1697443,-0.4214564,1.9575444,1.2140359,2.1851313,-1.025851,0.34405631,-1.8154954,0.31488293,-0.050098963,-5.7946334,-0.25271091,2.066015,0.11854815,-2.3529749,-4.9222398,-6.1186543,-1.4609236,0.61257946,0.56587523,3.2161613,3.0857313,2.2096288,-0.45538396,-1.4771973,1.9622315,-1.5211627,0.70865291,0.75994015,0.69276881,0.36879015,-0.41293231,-1.8051773,-2.61041,0.16621986,0.78961432,-0.9260273,-0.4061797,-0.07345438,1.3124784,1.126682,-2.0778346,-1.4370481,-1.0316836,-0.98812377,-1.2111155,-1.4136953,0.63245362,0.93965113,2.5955622,0.96875864,1.3747911,-0.34556749,0.46641102,-0.060038488,1.0839701,-2.0906205,0.31166261,-0.35189706,-0.22980097,0.77462697,-0.81003451,0.30153245,-0.72309124,1.0973924,0.73755574,1.627062,-0.3668358,2.4830253,-0.33207622,-0.050855312,-1.5490148,0.76663399,-2.1032271,0.92948073,-1.0447184,0.78849709,0.015861984,0.66541713,-0.40555766,-0.68029898,1.1929705,-1.0409546,0.05258463,-0.44735682,1.524521,-1.0834372,-0.9944247,0.58918577,1.5993593,-0.48583877,-0.68877333,0.66993433,-1.7435008,0.019714599,-0.053438667,2.0754354,1.1431421,0.38253,-0.43323344,-0.84144151,-0.104894,1.1582923,-0.73891735,-0.68253475,1.2935365,-1.0342686,-0.31875712,0.0029029818,-0.99263334,-1.0195402,0.73247403,-1.1222382,-0.48318821,-0.1786017},
{-0.29847547,1.9453912,2.1721334,-0.3207663,-0.88874358,1.5610244,0.22680888,1.3155122,0.42717263,-0.31693265,1.6156751,-1.1567533,-0.71891415,-1.0399345,0.091511525,0.46048945,1.0076854,-0.21553279,0.37248376,0.33498621,-0.00045178979,1.136564,-0.29158303,-0.81452417,-0.4440698,0.57631522,0.76138014,1.0948936,-2.0558214,0.37459537,-0.11555219,1.2943716,0.80583203,0.98831981,-0.48974791,-0.60260963,-0.090195253,-1.1242844,0.040281583,-1.05609,-1.6414446,-0.23394328,1.4257886,-0.20897239,-0.12591137,0.47400388,0.94877189,0.19666132,0.18630217,-0.64526087,3.2879722,-0.71071935,0.6792264,0.73208994,-0.61195403,0.7410816,0.14798395,0.7740441,1.0513811,-0.067058623,-0.08514709,-1.2438887,-0.15759967,-0.92852443,0.20683911,-0.017002136,-0.03900275,-0.63416743,-2.5691957,-0.46078727,0.33921492,1.7928758,-1.0105295,-0.7577104,1.7301464,0.51882726,2.972115,1.907313,-0.98999095,-1.7060028,0.7870506,0.94994557,-1.0215435,0.42467305,-0.13534161,0.34912452,-0.51038629,-0.28264493,1.2229604,0.68807393,0.93239915,1.183841,0.964679,0.078811586,-2.3987093,-0.64620924,-1.6479646,-1.5843005,0.68268996,0.097948231,-1.2513691,0.27219275,1.2266819,-1.1477547,1.4308665,1.8144664,-2.6967711,-0.16446124,1.5342538,-1.0175815,-0.28340089,0.1836682,-0.28295255,0.45996723,0.41002765,-0.69870102,1.0507337,1.2117877,0.67916983,-1.2967267,0.98092097,0.095305063,-1.0037675,-1.7871791,-0.03050681,1.3556442,0.71036249,1.5419495,-1.666628,-0.7632457,-1.7971672,0.38388944,1.4271656,1.0315231,0.68299758,-1.0419568,2.237731,-4.5253944,-0.19367538,-0.53905278,0.76641411,0.22571515,-0.32324734,-0.40045351,-0.8822425,-1.5610746,2.1869862,-0.0033069176,0.62354022,-0.47055879,-0.062300123,-0.4568224,0.8631146,1.6968766,-0.75281441,-1.3099315,-0.46500987,-0.51929808,1.1573024,0.2706522,-1.1772677,0.83918691,-2.3450263,-1.2050569,-0.29174036,-1.8765589,-0.058003101,0.21813631,0.9735797,-0.13157029,-1.2649918,-0.23849963,-0.17565277,1.1269337,0.12205031,1.9194663,-0.64251202,-1.3655275,1.1192797,-1.0136218,0.52056772,-0.18019852,-1.2659843,-1.0526357,-1.0327795,0.21344115,-1.1174229,-1.1532092,1.4469122,-0.39962757,1.6701548,-1.4130204,0.78896236,7.5952201,-0.4535524,-0.31508434,0.18770596,0.75021571,-1.8291391,-1.9427705,-1.2685877,-0.53807586,0.83771163,0.61482286,-0.94949007,-0.51339012,-0.21661532,-1.0839007,-1.0870465,0.70176536,-1.1877462,-1.366908,0.20463414,0.39119387,-1.38411,0.55294639,-0.8118065,-2.4108968,1.3247561,-1.9564583,-1.2637321,-3.3260219,1.8621265,-0.21554147,-0.33223668,0.242652,2.1632304,-0.05530091,1.0614003,0.36445558,-0.019177832,-0.97515482,0.23554127,1.0861536,1.7122527,1.2066829,2.2966349,0.59750879,-0.010727044,-1.9500782,-0.51890975,0.062386032,-1.4193857,-0.37136695,-0.2340201,0.29772064,0.63842988,-0.91555357,-1.9679042,-3.3502295,-0.40956602,0.0021797454,-0.98988867,0.13420376,3.8073134,0.3519603,1.7524818,1.0741907,0.96047705,-0.90784389,1.1752011,2.0943408,-0.05178187,0.69662738,-1.1923542,1.2371999,0.20164199,-3.0508311,-2.2567689,0.76009983,-0.17088544,1.1854608,-0.6164788,-0.94383001,-0.75728256,-1.0887901,0.080146126,0.41842166,-1.3832761,1.6542648,-0.82769108,-0.069546096,-0.49622095,0.67778945,0.5030058,1.0670313,-0.29780701,-0.97355676,0.97344607,-0.81009549,0.31639707,0.84043932,0.22741054,-1.5664403,1.43626,-2.9184577,-1.7810081,-0.19170812,0.89413857,0.2671507,-1.3656234,-0.79399288,-3.4148753,0.082485303,0.07032641,-1.8908315,-1.6111526,-1.2980849,1.3428124,-0.70562595,-0.69310462,1.0182573,0.037821565,1.3866044,-0.52523911,0.96799761,1.1486958,-1.4628228,1.0672385,-0.37519166,-0.89040977,-0.67205393,0.58046412,-0.77437788,0.55801147,0.35846719,-0.79730654,1.1978693,1.3630595,0.43124214,1.7479833,-2.161005,-1.6317765,0.76802742,0.61870754,1.1805115,-0.33372441,0.64201337,-0.22593468,-0.65131694,-1.6458961,-2.0291255,0.75098687,2.8441093,-1.9786879,-0.0048169731,-1.0156373,1.4559532,0.68827319,-1.8710088,1.8969051,-0.36070111,-0.47706187,-1.0311532,0.79925978,2.2425735,-1.0850821,-0.42157292,1.3528981,-1.9188256,-0.037688658,3.033253,-1.5937482,0.90336871,0.70708793,0.41872251,-1.3434045,-0.088565633,2.1812274,-2.9165413,-1.1551417,-2.2622604,-2.2694197,-0.81210589,-2.5213773,-0.37057921,-2.9959137,-2.1889248,0.68183821,-0.60611802,1.1757137,0.055227865,-0.69115412,-2.2330782,0.94304663,-0.85235155,-0.57367361,-0.18218425,1.6879832,-1.0496209,-1.0346876,-0.59468096,0.033172958,-0.61850679,-1.7754503,-3.7887597,-4.3709054,-1.3334355,1.7420886,0.14454991,-1.067203,-2.8133044,-3.3944626,0.906322,-0.59777671,-0.48772708,-0.47878155,0.2405906,0.79132622,-1.5902238,0.17105138,-0.30216739,0.88998336,0.81429428,-1.1012357,0.52160227,-0.21095845,-1.662231,-2.9317973,0.062681101,0.085948303,0.0659713,0.56124914,-1.9571283,-4.8650417,-0.23242967,-1.753455,0.60347414,-0.71640861,-1.7359942,-0.20043419,-0.049837828,0.23086348,-1.3320808,1.4922668,0.3239972,0.099450856,0.9537614,-1.1534671,1.0347404,1.325684,-0.93908989,-0.99259889,-1.0963519,2.2188709,-3.0166829,0.56423503,0.45609975,-0.010919741,1.2491782,-2.8400991,3.4553251,1.5808246,2.6712792,-2.0733566,0.57915413,0.23003681,-1.5500883,-1.9398764,0.95334357,1.645076,-0.1932732,0.048120081,-1.2741439,-1.2801045,-0.56956077,0.26690775,-0.4041298,-0.55912399,-1.2846287,0.993936,-0.22724742,-1.6983062,-1.5232632,1.2134954,1.0872146,-0.9566859,1.1926768,-1.0044149,-0.8264063,0.45159322,0.65219289,-2.7486417,1.8678226,-0.20561399,-1.6444026,-0.31316212,2.7461774,0.93508226,-0.63135761,-0.3986147,-0.33182433,-2.083977,-0.93786985,-0.12965301,1.1809673,-0.39854544,0.47635469,-2.1473789,0.92544615,0.55685085,-0.48196673,0.6816445,-0.82050234,-0.27457964,0.090462707,-1.5818489,-1.0379072,0.23853424,-0.99161202,2.6490235,0.70288241,0.6312772,-1.3094628,2.6642869,1.9850574,2.0535021,0.31475192,-1.5475149,-0.10037082,-2.4059234,-3.2426257,-0.14163333,-0.44736862,-0.25451502,-0.25687429,0.71143275,1.1181531,0.08855319,2.4981391,-3.1885767,0.6290803,-2.0431778,-1.6778004,-1.8132502,0.91823643,1.7030647,0.74520719,-2.2234097,-1.5684863,0.69838268,0.62385762,2.0422478,-0.2641384,-0.5236522,1.1011872,0.71494693,-0.13854817,-0.017063998,-1.2292422,0.36835694,0.44448754,2.8689535,1.574963,-1.0101849,-0.23601396,1.2237773,-0.37792993,-1.2438233,-1.7989529,0.11709323,-2.4166231,0.78567922,1.6275436,1.086635,-0.51997823,-0.93812674,1.474715,0.070232756,-2.5067458,-0.84605974,1.0757354,2.4761498,1.4547262,-0.59227806,0.05971697,-1.8405856,0.21057963,1.0972971,1.044229,0.8234185,-1.0807525,0.65171659,-0.52989149,-3.2899029,-1.8152399,-0.28235343,-1.0363854,-1.5634828,-2.0181508,-2.4734437,1.5159863,-0.45632136,0.73005348,1.2916709,0.61705208,-1.1125156,-0.32742956,0.78478706,1.8645817,0.88456678,-1.6173176,-0.47157839,-2.0159595,0.39178017,-0.39976746,0.070070624,-0.78318042,0.14763373,1.1528287,-0.76462924,-1.3324815,-1.1766098,-2.7350211,-0.49037829,2.1001575,1.526121,1.6580807,-1.2174573,-3.1220403,-3.0419369,-0.21750234,-0.20163144,-0.94276404,-2.375927,0.18232793,0.46834984,1.8268191,-1.7625757,0.38051131,-0.75384402,-0.31946078,1.7857758,-0.69006211,0.65076172,0.56702906,2.094418,-1.3330579,1.351854,1.8430575,3.7138503,-5.9086323,1.3699677,-0.16985415,0.31488913,-0.80621409,0.44807056,-1.2501727,0.011219095,1.440871,-0.74930704,-1.2175497,2.455209,2.6855338,1.9199107,-0.6990968,1.1503463,0.275289,1.8443079,0.69393301,0.68728107,-0.63400131,0.64890343,0.57014817,-2.4895434,-0.28706068,-0.4619863,2.4544232,3.3199863,-3.5939789,0.17409801,1.074561,0.099071942,0.090027101,-2.7323532,-0.95184058,-0.064419091,-0.91655838,1.592366,-0.41163492,2.2711759,3.3969765,0.50379968,-0.8091417,0.25397849,-0.075268149,-0.24998061,-1.748332,-1.265558,1.1894685,1.9912888,-1.2550793,-1.4009094,-0.19739211,0.4464387,2.2290666,3.1037805,-2.6992199,-0.031130536,0.62200898,0.94056809,-1.171993,-1.1481031,-1.5117662,0.7865774,-1.2692745,7.1225252,1.6068963,-4.4209585,0.029200444,-1.35004,-3.2249026,-3.9520471,-4.1807113,-3.1520126,-3.2393727,-1.6022688,0.65705216,0.12962011,-0.9660235,0.10004713,0.07676018,1.6814475,-2.2127206,1.2413194,-0.18064731,0.68599939,0.38663113,-0.20640212,-0.22456762,-1.056435,-1.9475759,0.70595586,0.68292195,-0.8842802,0.40821433,-1.1834322,-0.49317783,-0.48502767,0.29293719,-2.5962203,-1.1443039,1.0384789,0.99111027,-0.90453929,-0.90929735,0.61486369,0.93664861,-0.56827974,-0.41950148,-0.96392614,-1.7449291,0.95313495,-0.88454878,-0.57700086,-0.98584896,0.99251598,-0.67714894,0.36180022,-1.6596118,-2.4813638,-0.040617753,-0.77967346,-0.47777227,1.0562946,-0.58644766,0.69784915,-1.0524275,-1.6058089,0.67000884,0.37183157,0.17339098,1.4176127,-1.641705,-1.370134,-0.15925057,-0.51777864,-0.99781716,-0.044040699,-0.50182933,1.1893989,-1.2216024,-1.6873946,0.78611898},
{-0.26428452,0.67427683,0.30096343,1.1318671,-0.82570595,0.20833656,0.62111741,-0.38858607,0.03638301,1.1110492,-0.039321087,-0.62266785,-0.9604466,-0.44746253,1.9994888,1.2446994,1.769171,0.56780237,1.2715136,-1.9661441,2.3221672,0.43165725,0.85666811,0.93813664,2.3719447,0.010329209,-0.64622891,-0.15705851,0.79638606,0.74721903,-0.75416893,1.2757305,1.0456418,-1.3194991,-1.011551,-0.54719883,0.29969034,-2.6858821,1.2214293,-0.13685627,-0.0068924925,-0.41500485,-0.47038478,0.87701148,-0.91947073,-1.2074872,-3.2414782,-0.87416691,-0.91851777,-0.7807169,-4.9665127,-2.929219,7.2843437,-0.15491088,-0.48522514,1.7380944,1.2550567,-1.1823858,0.026891958,-7.1564918,-10.198012,-9.9332151,-6.4676385,-4.5591493,-5.6349831,-2.2417841,-2.3463047,0.79742032,0.96279418,-0.57478607,0.25744963,0.47804892,-0.45422721,-4.3680086,-14.788618,-10.199012,-12.367183,-3.2575676,4.3462682,3.4526753,2.5913529,-6.6938953,-0.815193,1.9895692,0.87774092,-0.14854257,-8.0714283,2.55897,0.9148733,4.1518378,0.25527304,-2.2354004,-6.7036004,-3.8456337,-5.0056725,-3.1343439,-0.44361928,2.0370176,-3.1751866,-3.6974008,-2.818249,-1.528535,1.2210034,2.2326245,1.1469796,-1.3785671,3.6975312,1.7660753,4.3847384,7.9420123,-0.21516664,-1.8838763,-0.084761336,1.0999743,-2.4620359,-1.5641601,-3.1921077,0.70501584,0.77996987,-0.43341893,1.0828434,2.385776,-0.006179479,2.3186302,1.4683919,-0.83675021,0.1235333,-2.8820992,2.6718683,0.55493152,-0.66191268,0.32191095,1.6247369,-2.0004551,-2.2516992,0.44332778,-2.8956652,-1.5436126,0.094636612,-2.2177076,-1.1252674,-1.3660883,-1.5726041,0.64518929,-1.5167263,-0.20144545,-3.3335385,0.28258276,-0.35467348,-1.8466479,0.086529531,-0.61991501,1.3717536,-0.94939142,-1.4489707,1.4590566,0.23827139,-0.45740312,-1.962052,-1.687609,0.4856627,0.42334321,0.24105319,1.6976081,2.6027179,6.7223339,-0.29764009,-0.3793813,-0.98285282,-0.67114592,3.0544984,-2.0752449,-0.0012156165,1.8953661,1.8848915,-0.047461845,-0.71566492,0.63344711,0.78860205,-0.24368376,-1.2521843,-0.60294241,-2.4343741,0.63986635,-0.67792547,0.01670612,1.8540845,-0.013616561,0.31567997,0.95960224,-1.4283445,-0.16759196,-0.17005832,-0.79463458,0.39516428,0.029681178,-1.8954197,0.51988339,-0.32427293,0.91693449,-1.8175153,-1.9050798,-2.651557,-0.69958961,-2.322041,-0.38929346,-2.6730146,-1.4781953,1.5295385,2.6173034,-1.4062048,0.86834174,0.77150154,2.421454,1.756628,-1.6415395,-0.2449709,-0.25266841,0.92421007,0.054451816,-1.9069099,-4.5057182,-10.043834,0.093079336,2.1482852,-1.154672,-4.9643888,0.71935827,2.4556646,0.066415444,0.1239745,-0.018631749,-1.9706079,0.67179918,-0.36791629,0.6987164,-1.6238204,1.0843258,-0.32466722,-1.3922055,-0.2756533,0.15556298,0.66329426,0.68999052,-1.2367219,-0.53632343,1.9357345,-1.206466,1.4818852,-4.6715112,-9.190136,-0.58030373,0.061130892,-0.63718122,5.9243474,1.8011693,-1.2818756,-1.1172055,-0.79553765,1.4530168,1.0421835,0.39465001,-2.340764,-1.1951166,-0.37521228,-0.595047,-0.27109692,0.17714848,2.2240515,-0.67224735,0.27512744,-1.1556011,0.9005084,1.0563873,-0.69881785,-2.0179629,0.38888836,-0.092514209,-0.28314993,0.52432257,-0.95238477,-0.92818213,-1.3612256,0.0051876642,1.1074407,-1.7257484,-0.39403212,-0.77363515,-0.57761717,1.5636327,-2.7522752,0.64647275,0.35757869,0.052643098,-0.59492302,0.2074476,0.90975934,0.58754396,-1.0067509,0.29938313,-1.7596654,-1.3350614,-0.82291913,0.40153149,0.51545382,0.65942478,-1.3687828,-0.29326716,-0.30368519,2.4226053,1.5189259,0.9261409,2.3183651,-1.7918092,1.1271076,-1.7561409,0.25930005,-1.0987427,-1.4346489,-0.89650875,-0.72698843,0.93211502,1.1379229,1.3163433,0.28037405,0.24125309,-0.29019827,0.81398773,-0.86879569,1.1609731,-0.53285754,0.13605259,-1.9815793,-1.7187036,-1.7308691,0.40520564,1.1810923,-2.2792339,0.41146168,-1.8158981,-0.81865007,1.3861887,0.42469537,-0.87436539,0.45056012,0.50861865,-2.4288657,-1.4344921,1.2399064,0.42472649,0.78377974,1.0268232,-0.023730971,-0.9820475,-1.4463673,-1.2895595,-0.44293001,-0.4911685,-0.18757385,-1.8977793,-1.0805421,4.3767152,-2.4153175,-1.4892761,-0.019526726,1.6946214,8.1764631,0.44181621,0.25981668,-0.13338885,-0.37974945,0.27262378,0.85076237,-2.2272089,0.13871469,-1.7490481,-1.7647846,1.622092,2.0828776,-1.0666939,-0.020729272,-0.74101532,0.31434491,-0.88448459,0.045106854,-0.015823185,0.25560737,-1.8936419,0.084587239,3.972306,-5.5674348,-1.8244002,0.88747668,-0.89766157,-8.5484781,-0.16718571,2.5757754,-0.85293168,1.9347805,-0.75426185,-1.2114462,0.2876201,0.0080358526,-0.12000038,-1.8563124,3.6560361,-2.1264701,1.9915633,-0.47471499,-0.2410863,0.41768959,-0.55272549,-0.87901431,-0.76755184,-2.134438,-0.4554868,0.60963273,-1.6849253,-5.5965838,-0.82908285,0.97753978,-0.25872025,-12.158017,2.3157725,0.74939835,1.5429227,0.95430773,-0.45998371,2.1804228,-0.94317818,-0.77168816,-1.7647263,1.0048933,0.5612821,0.87673479,1.6342676,-0.67074078,-0.41725087,0.046967722,1.0762455,-0.36544251,-0.57729316,1.3663298,0.70900834,2.7449048,-2.1618102,-3.8416824,1.0058532,-0.38254333,-0.70528227,-5.7245493,-0.22914989,0.46602041,-0.32874766,-0.49406677,0.62504661,-1.316561,0.46376598,-0.33428767,-0.98056996,0.64563602,-0.10043364,2.5044837,0.96474564,0.67072976,-0.4235855,-0.095414847,0.55184275,-0.38195765,-1.4508179,1.211169,-2.6748357,3.6267822,-5.74856,-2.724839,0.1235813,-0.91500688,-0.28724283,1.8353075,-0.71748245,0.47102442,1.186029,-0.36402398,1.8185887,0.062347561,-0.45070884,-0.31531167,-0.54036951,0.054019403,-0.31252378,1.1331844,0.44991085,-0.86230636,-1.1310107,0.88829309,0.26490197,1.733277,0.28548405,0.75691426,0.51944911,1.2158712,-4.9805799,7.2906103,-1.2372777,0.037578695,3.1674995,9.6314545,0.91335768,1.8035762,0.28913608,-0.45292002,-0.81843245,-0.27571988,0.28656408,-0.91638863,0.9277786,-0.86253446,-0.13690296,2.1180389,-2.4009647,2.0692,1.6422544,-0.033533923,0.76317871,0.037932623,-0.88486856,-0.087447554,-1.4101229,2.7093794,-2.9190667,8.4970808,0.42125672,2.6092269,-0.13398862,-1.2599583,0.43090257,-0.44195488,-1.412166,1.2455508,-0.58002681,1.4695169,-0.94604021,1.295197,0.85479504,0.27854237,-0.19135718,0.3136864,-0.3992584,-0.94646341,-0.67915434,0.570961,-0.046457186,1.2213999,-1.490208,0.71826166,2.0870469,1.1389734,-4.1837406,4.0683513,-2.1459956,1.2893533,0.2425193,2.0829604,-0.84100759,0.96795297,1.7895184,-0.038760826,0.36147669,-0.39549688,-0.81593215,-0.17760769,0.039262105,0.27131173,-1.0668781,0.58799368,-0.78345048,-1.7643268,-3.1369395,3.4940858,0.057267494,0.69482684,0.943385,1.6714544,-1.7856653,1.235253,-7.755754,2.0273149,-1.1241318,2.0715215,1.6581305,2.3228586,-0.46670699,-2.3049657,-0.0077515487,-0.15088105,-0.040415619,-0.1306389,-0.50724608,-0.32573882,0.56370348,2.3005133,-1.4907674,1.5617133,-0.60298157,0.88979048,3.8306677,0.49128532,0.40333599,-0.5954529,0.2657713,0.23403424,2.1010718,-0.27613619,-7.6385937,-1.3684956,-1.080375,-0.63044256,2.0956371,0.15167551,-0.73004532,1.0683944,-0.10599697,0.7048474,0.1907015,-1.2752587,-0.14494023,-0.59745264,0.60368729,0.7368176,-2.1057503,-0.26291063,0.90534019,-1.2154425,-0.95088822,-0.055027392,2.054086,-0.30118749,1.249058,2.3050542,-0.89451081,0.47034144,-6.9346728,1.80855,-0.13136086,-0.89618891,0.61917257,-13.284605,-0.23576197,-2.5312274,-1.4808332,0.91854161,-0.62399179,0.050778728,0.066753522,0.24280769,1.8954202,-0.058109302,2.1881621,0.16397767,-0.84567875,0.45848271,-3.8017147,0.76625586,-0.16748862,3.3590302,3.8657308,3.0939727,3.8722267,0.36296389,-8.4605474,-0.65422004,0.45224044,0.53345543,0.40748414,8.7527122,-2.1471765,-2.0466847,0.95598364,-2.6753509,0.6030907,1.08157,-1.1481322,0.59210604,0.17175789,0.14979306,-1.3446625,-0.38770381,-0.72630858,0.038525511,-1.1451939,-2.0765457,2.9293153,6.4575953,-4.5957365,1.0994486,2.6098707,0.47901985,4.491025,1.1178688,0.10160638,-0.57578504,1.0838785,0.85430413,0.76301152,2.0052817,9.4709501,6.6093602,4.3009758,0.54666424,3.9042065,1.0570816,-9.5289307,-3.0669472,-2.4260025,-0.037455898,0.81573457,-0.43355694,2.536267,4.1247883,2.4880109,0.7486307,2.3081262,-0.32281825,-2.1669796,0.94454139,0.8175922,0.93985099,-0.044734098,-0.015327698,0.36617839,0.1903929,1.0014347,1.0759321,-2.2451222,0.517048,-1.3407366,0.96777111,-0.39073294,-0.49256322,0.078272365,-0.37710372,-0.86889982,0.96365464,-0.80455536,-0.78352118,0.13018779,-1.0759852,1.5026553,1.5175099,0.37581462,-0.97336549,0.15715055,-0.55826831,0.50501215,-0.42844701,0.49998933,-0.89028835,-2.0896533,0.10324997,-0.18807057,-0.31310022,-0.082421049,0.27363992,-1.3273863,-0.24643548,0.49762031,-1.06841,-0.35686967,-0.28560495,0.79202366,-0.16046612,0.18914759,1.1927235,-2.0619152,-0.40713564,-0.54288912,-1.3645616,0.96816117,0.29278448,-0.76190853,-0.77266473,0.12684675,0.88082641,0.90625113},
{0.8754887,0.04295795,1.2890776,0.26684326,-1.1411129,0.78293896,-1.1616206,-0.19429904,0.94805765,-0.51852357,1.50095,0.5977906,-0.20928314,-2.314796,0.14008379,-2.3457687,0.9561699,0.14688694,-1.7666683,-2.2263589,-0.062142063,-2.4764414,0.92357993,0.37431014,-0.77018034,0.26492161,0.052618839,0.35441452,-0.9125312,1.0792557,1.3221107,0.23383044,-0.2439958,-1.286209,-0.55934513,0.54638195,-0.12207001,0.71996909,-0.36103454,2.2554345,0.10302267,-1.5985063,-0.47250432,-0.35029194,-0.46066234,1.5476007,-1.9754525,0.12797107,-0.048184663,1.5136521,1.0024248,-0.38300303,-0.22255719,-0.22202858,-0.85021573,1.0200138,-0.63215691,0.77053368,0.04067304,-0.34566498,0.065076135,-1.4010204,-2.2983201,1.857501,-1.956202,1.1351629,0.84761888,0.054425247,0.47890958,2.1120136,-0.23029909,-1.0329617,0.95989609,0.72250676,0.75921881,2.1384604,0.33764321,-0.6029439,0.41599408,-0.89272016,0.27408245,0.34918523,1.1934915,-0.70896918,-0.2012033,1.1990151,0.036995824,3.4031143,4.8623242,-0.99661577,-0.87434465,-0.66982347,0.37693119,3.0450864,0.81292814,0.34813169,0.64997303,-0.45001507,2.3268657,0.84130514,-0.0040731425,0.036551319,-0.32713616,1.2261374,1.8324869,-0.80502713,-1.1826237,-2.7548213,-0.065277226,0.21397574,0.92724949,0.044339534,-0.72326958,-0.1430507,4.3677492,-1.7589405,-1.3808571,-0.16497992,2.4723942,-0.29840297,1.8579192,-0.62419522,1.8537415,-0.87159741,-0.15980613,2.112438,-1.3263623,-1.8026751,-0.035076857,-0.1886299,0.017947258,1.7128699,0.64262193,-0.76995921,-0.52296048,-1.7901467,-0.27416155,3.1090288,-0.13112344,0.8174926,1.2817827,0.10567075,6.5650725,-1.964659,-0.63198507,0.15676762,-0.34959441,-0.81592011,-0.70248067,-0.023985619,0.6800943,-1.6674459,-0.73264509,-0.78382224,-2.4250412,-1.9938118,-0.10762063,-0.99033028,0.15784797,-0.0029231254,1.1736747,-0.34453234,2.9663944,-0.56147665,0.47511744,-0.37745935,-0.44535553,-0.029574336,0.7878142,-0.18035442,-0.023662308,0.86292398,1.5627173,0.25397283,-2.5144379,-0.56734902,1.9446198,0.88001019,0.71380538,-0.81833613,-0.94503379,0.90974265,-0.82699537,-1.2090617,-2.9464712,-1.3334606,-1.9067649,0.56501174,0.13890342,0.7912243,0.089220367,3.015806,1.5119025,-1.7349761,1.8911192,0.75692123,-0.75122255,-1.3685291,0.10583469,-0.67345148,1.4417293,-0.34083578,1.8516876,0.17693366,-1.38556,-1.6185654,-2.7080576,-2.0727117,1.6620578,2.6195879,0.32189536,0.078486361,0.27501905,-0.23169267,-2.0302289,-1.1243588,-1.4993186,-1.4946709,1.2753558,3.0345063,3.2376029,-2.8917234,-1.4123206,-1.8274661,0.48353851,0.76174241,-0.032827158,-1.0685264,0.31906044,-0.18957455,1.1351798,-0.38457397,-1.1504494,0.12002275,0.34371877,1.377611,1.1686027,-0.47794649,0.19507949,-1.5630772,-1.2377726,1.3901012,0.37306491,-1.0162424,-2.6109164,-1.2472199,1.494019,0.88872433,0.04497309,-0.99080855,1.8141233,-0.15440078,0.79119283,-0.47337797,6.3934498,-2.2425876,0.064290211,0.1043631,0.030347573,-1.593927,0.42214414,-0.85659301,0.57423794,0.75914204,-1.1148924,-0.2062386,-0.43293881,-0.57329845,0.24445507,-0.57385963,1.7835647,-0.90183049,1.5411316,-0.15684395,1.2411201,-0.21994562,-1.49554,0.86217791,2.7564595,0.44878867,1.4817547,-0.11090653,-2.1525857,0.16184334,0.19043675,0.63351017,-0.24525075,0.76126409,1.6379516,-1.0631281,-0.6815176,-0.1828689,0.28782585,-1.2390645,-0.14034557,1.4764256,-0.19756195,-1.1647961,-2.4268241,2.2824783,-1.2552395,1.1892457,-0.62747639,-0.30091313,0.8822701,4.6778355,-1.4756414,-0.22742724,0.7442376,-0.083854869,-2.6281796,0.87921059,0.22667377,-0.62497586,1.0327262,-0.87518036,-1.8984572,0.43882769,0.14930956,0.9781574,-1.0841734,2.1857245,-0.69286591,0.57351428,-0.80407757,0.48019823,-1.6083524,0.71735543,2.2174058,0.85296464,1.849965,-0.84585524,-0.94151276,0.22742513,-1.7255889,0.13125719,-1.0632087,-0.68653178,-0.74776566,-1.8657326,-1.1680815,0.94499356,0.40846333,-1.0907403,-0.48707891,1.6580135,-1.7407005,-0.19459079,0.61069441,0.85792655,0.52337646,-1.2415763,-0.82293493,0.01032619,-0.43410084,0.11306459,0.26127076,-0.30262673,-3.2873843,-2.8875723,-2.5456018,2.3082411,-0.31484404,0.32470992,-0.74702096,-0.43672287,2.2172778,0.58724546,-1.4417056,1.628688,-0.0073928018,0.0033943104,1.1467725,-1.0889128,2.8368723,-0.88883066,0.34702846,0.041489683,0.0073617026,-0.81224018,-0.66230237,0.2580469,-0.51726991,0.26514596,-0.79214162,-1.9149429,-2.5908833,-0.50791883,1.4773672,-1.3428395,-1.5124394,-1.4910895,0.17181608,-0.35582367,1.9394395,-0.70912284,0.80051053,-2.2190385,-0.87217814,-0.91478598,0.08137092,2.7200017,2.3138101,-0.19162957,-0.78437096,-0.030085115,-3.0588474,0.4239611,-0.38752875,0.74021077,0.54899716,-2.3926675,0.15365136,1.6214942,-1.0644253,0.71247482,0.67657745,2.2294903,-0.45238885,-0.56552655,-0.54175353,2.0353682,1.357067,0.46135363,-0.62967926,-3.392714,-2.1905406,-0.54412806,-0.35992867,-0.91098011,0.86178237,-0.87904942,-1.5081373,0.2190451,-0.060400058,-0.65733278,-1.2223606,0.27227476,-1.1197066,0.10713764,0.99953419,-3.786711,-4.175406,-1.3147024,0.097458951,-0.33364549,-0.3151314,-0.23471728,0.24667409,-0.018257411,1.5555266,-2.2891808,-0.082376704,-2.5892682,-3.6855574,1.1543734,-0.28797916,0.98633856,-1.2632892,-1.0610571,-1.7720783,0.83739465,-0.25973585,0.30607355,-0.99472612,-1.0397385,1.9941843,-0.76146823,-0.35123098,-2.535876,-1.0746217,-0.11613358,1.3405877,-2.6728692,-1.3546284,-0.25953716,-1.5327204,-0.65494138,-1.1482289,0.15052474,0.23282723,-0.43596071,0.66699433,-0.053022515,0.90731364,0.46139312,1.0920802,-1.1283833,0.60817307,-0.22859254,0.83491814,-1.3067218,-0.28664675,-0.0623339,-1.5780243,0.78024793,-0.69460481,-1.0379658,-3.5276418,-0.89402252,-0.62817836,-2.5854487,-0.72618294,0.33952114,-1.0380783,1.7906657,4.4772406,-0.65383375,-1.4423199,1.9731215,0.085794404,1.0327759,1.3629942,0.69500631,-0.6373024,-0.91138083,0.44057849,-0.73557431,-1.4987209,-0.43739188,0.15871933,0.29015011,-1.6665747,0.74638647,-0.28332722,1.1922163,0.50537288,-2.1265326,-0.57659107,0.87886196,-0.054250106,-0.83588535,-1.5183538,-3.422276,3.3590755,0.639768,1.0456597,1.4165088,0.05579431,0.86513466,0.60908586,-0.71516114,0.14276771,-0.41588196,0.859357,-2.7753882,-1.9185116,-0.36764467,-0.3582198,-1.7122538,-0.24312773,1.6416517,2.2347455,-0.21498078,-0.56554812,-0.28761575,0.88593489,1.8941025,0.28547338,-0.74224657,0.71861243,-1.9880329,-0.48030943,1.9370437,1.5470961,0.33099127,1.1701671,-0.33184224,-1.7390509,-1.7751167,0.46545991,-0.63190806,-0.11423115,-1.194621,-0.2765255,0.0249417,-0.041069124,-1.8134643,-0.22928882,0.81585699,-2.6175053,0.32511735,1.3315769,0.038151313,0.25403425,2.144634,1.8693477,0.10767382,-0.60233247,-2.0462472,1.8213708,0.79685241,0.21544814,-1.1861097,1.202136,-1.7221589,0.75324208,-1.182688,1.4200054,-0.32529029,-0.43873543,2.4263523,0.61449087,0.58515787,-0.7695362,0.79275638,0.065498039,-0.52961254,-0.31319997,-1.7631485,0.62146664,2.0393877,1.0678126,1.3285947,-0.040116012,-1.8231968,0.032701053,0.40387151,2.0905335,0.30865318,-0.51455283,-0.97750425,0.16444094,-0.48015639,1.0640724,-0.56995869,0.4102377,1.8919029,0.58265334,0.050519906,-1.1921837,0.51090539,0.37890193,2.0219295,-0.054432675,-1.2034526,-1.3463888,1.2175515,-1.1807648,0.92415965,0.048057783,-3.1849153,0.97407794,-0.16354743,-0.036326826,-0.87321889,-6.7266021,-1.9692706,-0.24658963,-1.3427221,0.16956832,0.73909026,-0.23907886,0.2080723,-0.39205793,0.95440215,0.33847031,-0.69820815,-1.4435496,-1.1619474,-0.29282752,-0.35056463,-0.94120091,1.6140133,-2.9332952,-3.2225239,0.61773562,-0.2020136,0.46277741,1.2894057,1.112721,-0.97757864,-0.8781513,-1.0210332,0.42615697,-3.1656101,-0.70200557,-1.4920022,0.47928914,0.63274163,-0.9798072,0.57657021,0.35930911,-0.67397767,-0.62900716,-1.0928588,-0.88859433,-1.6421347,1.106602,0.75110918,0.43442306,0.3502593,-3.0034504,-4.1832852,-0.93451369,-0.12942101,0.58496308,2.1040187,0.60652179,-0.98680949,0.19079903,0.084834166,-0.026087519,-5.1542592,-3.5676532,2.4047616,-0.42338032,0.29479101,-1.0092684,-0.92802954,-1.1421168,-0.7476207,-0.44198456,-0.84853196,-1.9065381,-1.0667654,-0.84152716,-0.90769762,-0.72785294,-0.63648778,-0.14314853,0.19422263,1.8545738,-0.68096375,0.8473689,-0.58489746,1.1387832,-0.18247032,-0.61046475,-0.6211642,-0.23360156,1.5814909,0.38657093,0.50334257,-0.92426163,0.38572186,-0.69438326,0.92068797,0.40719634,-0.23948762,1.9810531,-0.61087698,0.0498523,-0.49276266,-0.94209373,-0.80936497,-0.7430504,1.1878216,-0.41319096,1.2592131,1.1830387,1.2564149,-0.31732187,-1.2130302,0.83692026,-1.0200796,0.38548374,0.37936208,-1.572552,-1.7936424,0.86110729,-1.6216141,-0.18968381,-0.55757928,-0.47579652,-0.17453983,0.54469687,0.85235423,0.91093361,-1.1798539,0.8121354,0.16377702,-1.9187989,0.24139099,0.50089771,-0.43912417,-1.1741982,0.98165107,1.7105427,-0.66853625,-1.8169173,-0.35225856,-0.64676857,-0.75544292},
{-0.03042276,1.3570707,1.3509728,1.3695978,0.82823199,0.48710233,-0.85450411,1.0037533,1.2593421,-0.55910403,-0.26478916,0.82168978,1.747167,-1.5626585,-0.017318906,-1.146889,0.76019728,-1.0948273,0.10357448,-0.77599245,0.15222298,0.39533627,-0.7589736,0.82020462,0.67579025,0.65414065,1.4271573,0.98214644,-1.0258327,1.5623049,-0.37203717,-1.2865603,-0.46578518,0.38851151,0.32170427,0.68261558,-0.23944545,0.29191181,0.5887922,0.89346009,-0.054781057,-0.96850157,-1.3062003,0.040768798,0.34359053,1.8874424,0.17418607,-0.98417503,-0.86648375,-1.4449744,1.6209923,-0.58596116,0.14611985,0.14099106,0.75727171,-0.012236141,0.48038259,-1.7539679,0.61414516,0.34463769,0.99112469,0.75665408,1.0228716,1.3708951,-0.020637365,0.8758859,-0.58934742,-0.78563517,0.53154469,-0.26076603,-0.7757799,0.77449107,0.22831683,2.025346,-2.6638975,-0.071478285,1.987597,-1.5510138,-2.4079149,4.2408791,1.2646755,0.15336926,-0.83280385,0.38284001,0.41672936,-0.93479156,-0.43264896,0.51403153,-3.6706967,-2.9181976,0.70653534,0.14908126,-0.96835369,1.4282582,0.37519383,0.067121103,2.0295911,0.96170199,3.2098947,0.70059651,0.15555252,0.75111693,0.58280152,0.72500455,-0.20465851,1.1701293,3.401094,-1.0162537,-0.63588703,1.1604401,1.2262243,-1.6619291,1.0102063,0.49665758,-0.86520606,-6.4444361,-5.7960749,0.075410269,0.45078358,2.330092,-0.62871569,0.074106455,0.024030035,1.1373676,0.16205405,-1.1765292,0.96406877,-0.59922248,0.23609418,0.96055645,1.0083352,2.0805848,0.4192774,2.6483171,2.2332098,-0.3207581,-2.6030679,1.4396882,0.22513089,1.1119965,-0.59710896,-0.31640512,2.6475661,-2.2510571,0.053597528,1.8689754,1.3408631,-1.6319399,-0.31463119,0.83284932,-0.24562505,-2.2556379,-1.2948943,-1.9888158,-0.85220993,1.4127994,0.66616404,2.7638369,-1.5866338,0.85721934,1.7552764,0.62185955,0.7957502,-0.93236852,0.1961233,0.81032914,-0.55712104,-0.440323,0.70401716,-0.79909164,3.8901598,2.3675208,2.2078192,1.4387088,0.90627462,-1.3848485,-2.154928,-0.83219427,-3.1986241,-0.76161772,0.67758679,0.15918422,1.3616327,-1.5118345,-0.72979575,0.48756641,0.98513734,0.40688434,-0.91557544,0.14338985,0.011218272,-0.27157354,-1.6757042,-1.0471034,0.66159654,-0.35006258,-0.84790176,0.85405022,4.6552181,1.7993374,2.6067123,-0.30356884,-1.4840784,-2.9448881,0.5185281,-0.91158456,0.83425695,-2.4263303,-1.7765311,-1.5648228,-1.8525784,0.66019732,0.20472987,0.081424706,-1.3311566,0.074673086,1.288591,0.44323319,1.7270321,-0.034240995,0.40301159,3.5613847,1.2601564,1.467808,-0.046773553,-0.57493472,2.9802833,1.4208412,1.0737244,-2.4785392,-1.3785014,-3.4232228,-2.5214293,-0.11102004,2.0261827,-2.7993829,-1.4495316,-2.0495076,-2.0616744,-0.8843475,1.1210272,0.83431774,0.025500325,-0.23747432,0.23844999,-1.391315,-0.16943075,1.9095581,0.94745344,2.217561,-0.012886478,-1.826405,1.4688373,-0.28065658,2.5955443,4.0169768,-0.92503351,0.11261143,-1.9267982,-1.7224561,-1.5636479,1.8734579,1.5387998,-2.0677702,-0.39866322,-0.8120653,-1.1856099,-0.84827793,0.98794448,1.6505218,0.080869943,-1.0571145,0.65240222,-0.97500402,1.3686901,1.3481481,-0.068836875,1.7689497,-1.0103675,0.26142851,1.7762816,0.47244555,1.1539912,-0.38836324,0.97693217,0.20155162,0.22995909,-0.048734136,0.11205686,-0.27521849,0.69141269,-1.807482,-1.833288,-2.0958133,-1.7396196,-1.8594962,-0.49779403,1.4810553,-2.1246185,-1.2390317,0.06218113,-0.65241903,0.21891408,2.2560365,0.5352329,3.255868,0.25405285,-1.4657067,-1.8437687,-1.213342,3.0525177,0.74159735,0.77528667,-1.439999,0.60287243,-2.6132326,0.084758364,1.2186506,1.4747388,0.88778847,0.037451249,0.79207695,0.19697815,1.4026101,-0.040328968,-1.7029512,0.37206033,-0.4104791,-0.71781117,-0.29475692,2.2991297,-1.3042963,-1.3935511,5.7057805,-2.5625529,0.13108408,-0.097892046,-2.8997874,-2.3366752,1.5016066,-0.46720585,-0.92283779,-0.6597417,0.0091619007,-0.11009801,-0.38373303,0.66326028,-0.32882625,-0.21004423,-1.7656679,-0.66043806,-0.7120927,-0.94715178,-0.51148576,-1.6458167,-0.58861381,-0.86415702,0.46090049,-0.44907808,-0.77786309,0.58576596,4.8674746,-2.0219116,-0.52300519,2.460943,1.2012252,0.75494474,1.3439347,-1.0847212,-1.1087133,-0.33953542,0.22513504,-1.0911332,-0.36098549,0.62179887,-1.2836692,-2.689635,-1.5218489,-2.2341204,-1.2181036,-1.6721432,-0.68112653,1.6973912,-2.2863057,0.50318348,0.80773503,1.0832154,0.62706858,-2.7223749,0.20881225,-1.3405671,2.1091874,0.32681364,0.63793916,2.5903406,0.17495628,0.58503562,-1.1259776,-0.27008027,-1.7973148,-0.2326,-0.31725195,0.013884127,-0.68885082,-0.96677297,-1.568859,1.4791943,1.7248937,0.31285554,0.20687345,1.2837095,-1.0217433,-0.94296992,0.40612873,0.36364836,0.77920771,-1.4781146,-3.0694885,-0.070666164,-0.55200893,-1.5063839,-0.65025473,0.56082684,1.6688735,-0.32977706,0.9432593,0.64030772,0.5803501,-0.29254183,1.5564219,-0.046483375,0.47973308,0.19414279,-0.92589152,-1.0049717,0.15187539,-0.86220205,0.50120234,-0.46104196,-0.26166987,-1.3152392,-1.3202199,0.76245856,1.1311827,-2.6671734,0.31665891,0.97077698,0.62023264,-1.3725669,1.4646661,-1.005078,0.81461859,-0.50230175,-1.1863513,-0.93509126,1.5073477,0.83898586,0.45048413,-0.52122432,-0.39443603,0.41268829,0.39801627,1.3501896,-0.52205491,-0.42367077,0.1229985,0.30944943,-1.4441909,0.4803845,0.94904041,-0.46846211,-1.641927,0.12214558,0.1462398,0.77663034,-0.053668454,0.6945796,-0.033156473,3.5587592,1.8458238,0.93844599,-0.016509602,-1.0569154,-0.74331033,1.1749651,0.3817313,0.61889756,-0.1698198,2.1666691,1.5417618,0.11607823,-0.59677064,-0.36871323,0.23762944,1.304435,-0.039130148,-0.40934387,0.138366,0.54614753,-0.3609724,1.7740563,2.0167797,-0.96233034,-1.2642856,0.65192717,1.1024439,4.4241986,-0.23207042,-1.0273253,-0.13296542,1.0988029,0.58516383,0.71387243,1.4179431,1.5128829,0.43227708,0.92603332,-0.86997432,-2.0085709,0.60828435,-0.87872988,2.3603446,-0.80690581,0.44413051,0.0064512501,-0.19291371,-2.6878786,-1.8305675,2.2654974,-0.079647273,-0.1585981,0.46783531,0.20334302,1.5761662,2.0802634,0.24641675,-0.45937487,0.58264351,0.22644038,-1.024058,0.036171079,1.4918921,-0.16476023,-1.0375273,-0.78102416,1.3651148,-1.0836101,1.9340831,0.24373722,-0.93481851,-2.4176316,-1.9545094,0.52102917,0.34700418,0.49737743,-0.43240905,2.0876615,3.75194,0.15409887,0.88598603,-0.069508344,1.3603323,6.5814338,0.0092949178,0.9950462,2.5445132,0.16301037,-0.38602364,0.45927382,1.0465769,1.04028,-0.039984066,-0.91846704,1.1594363,0.55099344,-0.593014,-2.7289867,-2.7358963,1.8431612,-2.6703713,2.5489957,2.2860281,1.7164352,-2.8641336,-5.6422553,0.53202808,0.57256687,-0.80797386,-0.091707736,-0.12589121,1.465956,0.38458252,-0.29450411,-2.2832668,-1.3927442,-0.96089953,-1.1820515,-0.29722023,0.71015471,-4.1644936,-3.0156739,-1.9232894,-0.79656559,-4.1808376,-1.936626,-0.51363254,-0.26171607,-0.6584053,1.4331045,-1.497826,-1.5280864,-2.8874052,-3.1187973,2.1034272,-1.3606101,-1.8744712,0.49784359,0.15976532,2.1707723,-1.1628021,1.165694,0.48284456,-2.531347,-4.2058177,-2.2991502,0.45808965,0.20646021,-1.4854871,0.33339068,0.83213389,-1.8154262,-3.1000705,-1.484501,-0.6144132,0.24990021,-1.8526585,-5.2162957,-0.86349154,1.6413424,-0.72371656,-0.70116305,1.5521131,0.3777118,1.8696986,-0.20488426,-0.58180445,2.331686,0.38443398,-1.5855486,-0.13673663,-2.4138389,-3.6653924,-0.83351839,-1.8625033,-0.068802245,-1.7389941,-0.68799627,-0.55453724,-2.787266,-2.7559688,2.0114663,1.6578367,1.7363801,-5.1606855,-2.4201965,3.190311,1.8392113,-2.367167,-0.12840064,-0.66840881,0.13538757,2.9894445,1.4747163,0.82417876,0.18378337,-3.0980349,-0.0042256704,0.69082028,-3.0097082,-2.3875813,0.38440761,1.1747413,0.61745381,-0.31478402,-1.816354,-0.82031322,0.53317523,2.3673587,1.5348099,2.1118915,-0.56269264,-5.1569977,-3.120374,4.3552713,2.2447398,-2.9918892,0.13958812,-1.4019362,1.4068116,-0.22694895,-1.2091427,0.45429698,0.63213092,1.6976769,2.0984447,0.82685053,0.36615959,-0.085083649,0.70557743,-1.2672991,-0.62717515,0.86406338,0.66389787,-1.3800405,1.0120836,-0.88868093,-0.80613256,0.46011242,-0.58121979,0.93829352,-0.36544839,1.3756292,0.6827209,-0.5484674,-0.65904689,-1.5775772,0.23373944,1.1712852,-0.28376681,-2.1371675,1.7524905,-0.43189973,-1.5775856,-1.5805477,0.75883251,-0.16079198,-1.0748538,-0.78986758,0.60162115,0.25428426,0.16837709,-0.89094317,1.4669406,-1.0338558,0.057883941,-0.50562519,0.54769367,-0.39430669,-0.40581775,0.094951779,1.9544355,1.7748833,1.7858719,0.89011645,0.92209917,-2.1622422,1.2025073,-0.79337227,0.288243,-0.46073893,-1.1917964,-0.20081462,-0.20604932,1.8457435,0.12723252,0.077029116,1.0404122,-0.67434299,0.049080346,0.87647533,-0.53020769,0.10878424,-0.049820378,0.84982711,-0.67678821,-1.1705163,-0.025489016,-0.23620808,-0.25692043,0.827833,0.13265413,-0.21345457,-0.60679752,0.99422765},
{0.75854933,1.4082143,0.28164974,-0.37437671,-0.47694388,-1.6749682,-0.04865174,-0.38245758,-0.82542908,-0.9109652,-0.38953677,0.57985729,0.16636869,-0.097636856,-0.0014341086,1.2319983,-1.3160717,0.044231784,-0.30584535,0.48843536,2.0789094,-2.2884464,-4.0699763,-0.79575866,-0.061527748,1.6035767,-1.4080303,1.8802354,-1.0110281,-0.051744312,0.74619514,1.2478727,-0.52273268,0.037093576,2.5686429,-1.0902444,1.2745413,-1.006476,0.27471739,-0.2206116,1.0103911,-1.0723355,-1.1107793,-0.31066415,0.65021688,-1.5941128,0.21815704,0.80123085,0.58028501,-6.1865053,-5.3145022,-0.722188,-2.5356865,0.29090267,-0.77243179,0.99552912,0.2708315,-1.0234982,1.4527113,-1.3812897,1.7460128,0.004665914,2.3402202,1.0031035,-0.43389207,-0.9145714,-1.2916886,0.025593393,-0.73998046,-1.3014603,0.91520429,0.1794769,2.0818357,-0.30607814,0.066177338,-1.4368795,-2.3292248,-5.2621799,-6.1404552,-3.417104,-3.275461,0.74860662,0.043901514,-0.29949528,0.64034408,0.15851824,0.057597715,2.2754328,-1.7111144,2.8425345,-4.0791593,-6.2193756,3.6737573,3.1091716,0.9762668,0.72094196,0.18047991,0.80330634,1.5476034,4.1628342,4.6894245,-1.1099179,-2.8123045,1.654112,2.4230371,-2.9584625,-5.7015963,-11.69068,-1.9844629,5.7708769,0.28870276,0.24764006,1.1301669,0.95521045,-1.7488195,-5.572937,-5.7641287,-2.0778627,-1.8315524,0.96817684,0.24310216,1.5750254,-0.93195307,1.1762253,1.4150863,0.16599712,1.7188127,3.1899314,1.0685437,0.65523058,-0.16624372,-1.6946683,1.5430486,-2.0586183,0.18615068,-3.1689975,1.4007244,5.3605962,-0.60834801,1.6050873,-0.65547109,-1.9616624,-9.784626,-1.7354844,-4.2979412,-0.94736052,-1.9897765,-3.9198177,0.18974383,-0.55724537,-0.098585978,-1.4010669,-0.4668996,0.58294266,-0.4369441,0.78149056,2.7409399,-1.0840259,-0.90102923,0.15368694,1.8729134,-0.31985092,1.4261029,-2.2456822,-5.1429482,-8.5644236,0.028848296,-0.65447032,2.0350988,-0.10391786,-5.2291784,-3.0397182,-0.78726888,-4.091713,0.084382296,3.0347276,-0.090443008,0.63509792,1.8578254,-0.70836556,-1.2423868,3.1359684,1.4800484,0.80642402,-0.16905415,-0.33377412,0.069115207,-0.19438514,-1.4229445,-0.34182405,0.78232938,-2.7354109,-3.9095161,-12.047859,-1.1288621,-2.8441317,0.37868613,0.0013444077,5.944129,3.3518679,0.51456279,-3.0014017,0.45344943,0.11337641,-2.3218362,-0.38595107,-0.71052432,-0.40469989,1.3906546,2.3600938,-1.1097215,-1.8989289,-1.3910724,1.5958447,1.2541604,-0.65431249,-2.7681365,0.9930563,1.1739428,-0.00022554191,-0.63823026,-8.5833502,-1.7270048,-1.3892881,-0.62701529,-0.77886736,6.2517066,1.2100583,-0.52467161,3.0833249,-2.5505967,1.7688736,1.5929536,-0.018770929,-0.59568304,1.7837496,0.90935594,0.16225402,0.1559798,0.071455918,-0.64130276,0.71450067,0.62735152,-0.23213005,-0.63942063,-1.0601432,-2.2895775,0.31216091,0.59707505,4.1695895,-7.2155876,-0.85641181,1.3300714,-0.80543196,7.0125666,-2.0930088,0.83283341,0.38373795,-0.89610416,-1.8506268,0.48086047,-0.84849346,0.62284565,-1.1141527,2.2594912,-0.28130937,-2.0612867,1.7240738,-0.53453046,-0.72099608,0.038953327,-0.049654908,-0.79310006,1.5176123,0.097416967,-2.2729075,0.82357055,3.1671221,-0.069185443,-5.2271099,-0.88819331,0.20400119,8.747097,-3.0538001,0.68263471,-1.4706619,-1.2066293,0.69742352,0.47441024,-2.4883325,0.87358719,1.3847026,-0.070716523,0.32700533,-2.7906141,1.6238388,0.23345627,1.7162012,-0.96927339,1.5618889,-1.3264359,-0.70806485,-0.4489558,-0.36858726,-0.66282487,0.92105913,1.9088624,-4.2499208,1.0714655,1.7864012,-1.2607181,-0.57121396,-1.0219002,1.6778744,0.28972116,0.028204693,1.155522,0.93130219,-1.378834,-0.39983419,-1.1455798,-0.31001285,0.61872965,-0.59201992,-0.88534319,-0.14055143,-0.7505846,-0.23574556,0.13665937,0.4963145,-1.4036254,0.10755853,-1.3385857,0.53093565,-2.2592165,-4.864872,2.093112,2.3470681,-0.82158494,1.6384927,0.015149684,1.0659846,0.72771525,-0.10050848,0.55055547,0.7762785,2.0243499,-0.15155968,-0.53045213,-0.2010982,-2.299448,0.54098648,-0.057977475,-0.13520846,-1.2732474,-0.062540092,1.1665808,1.0239097,0.29407164,1.2203532,-0.69981867,-3.925607,-3.7622037,-2.8713768,1.1280525,2.3606894,4.9856195,1.8853478,-0.072058551,-1.4093542,1.9913797,-0.25261807,1.4560246,-1.139737,0.68189639,-1.3662337,-0.10904087,-0.53888494,-3.2119236,-1.9150825,-1.7459042,-0.30886528,-0.037550043,1.4066628,-0.32943994,2.5382028,-0.06139278,0.99891114,1.0246801,-0.93506098,-3.3385379,-2.3965333,2.4548767,2.9248793,-3.5855737,-1.0149773,1.0341784,1.1004897,0.079010986,0.16709496,0.46729708,-0.52044672,0.60890293,-0.070886545,-2.2572818,-1.127427,-0.36106181,-0.34819984,-0.17147295,1.1136655,1.3499347,-0.39522964,-0.23043168,2.3284986,-0.91207772,-0.60781729,0.34123421,2.3140106,5.5283022,-3.6012187,2.3234775,2.1377172,-3.0974634,0.81789225,2.8843741,0.29381198,-1.052649,0.24710837,0.24938059,1.0832669,-2.1137419,0.44742629,-2.2955675,-1.5378951,0.54353511,-0.58343583,0.96105272,0.68628526,-0.31253344,0.44557178,-0.17719707,-0.41067317,1.5640591,2.254246,0.85235763,2.7249184,-0.59848511,-4.3201823,2.3516102,1.0768785,1.8165351,1.3297642,0.49669889,1.1599886,-0.89491385,-0.034148403,-0.51792568,-1.5425614,1.0414909,0.88636339,-0.77457303,0.91374904,-0.36700898,0.57339644,0.78306329,0.081573591,1.0437893,0.19565989,1.2264136,0.10777742,-1.0726041,-1.2862935,0.95660323,3.7632642,-2.0384028,-4.2420263,-0.94758886,1.014497,-4.4012461,0.28340939,0.71595395,-0.17046526,0.15565664,-0.69059968,0.54979056,-0.21606836,-0.9005875,-0.24579805,-1.0767269,2.5955851,0.50226909,-0.25447738,0.014458119,1.1806123,-0.082847394,0.23282592,-2.3605478,1.3872663,-0.38673338,0.46300215,0.063065603,4.3790059,3.7984471,-3.0085139,-0.058407739,0.19662996,-6.1987972,-0.462475,0.35458902,2.2715652,0.98014456,-1.4134109,-0.80282366,-0.7327404,0.47762996,-1.817506,2.8044495e-05,-1.501585,1.0154977,0.93851185,-0.19009322,0.98054504,-1.6250716,0.2196959,0.47249198,-0.25136977,0.53533632,-0.74218297,0.63194627,3.0658274,-0.96753925,-1.4110883,-1.6247342,-0.53531045,-9.9681587,-0.83478194,1.5101116,-0.16720502,0.024830572,-0.10072825,-0.84520501,0.92876065,-0.25268033,-0.27584174,1.2385862,0.063467167,0.32306916,0.83893073,-0.0058082263,0.038573191,-0.92249691,-0.17448302,-0.52619565,-0.44355828,1.085791,0.95070082,-0.22140333,1.3775694,4.6784997,-1.0902503,0.14120762,-0.4655017,-7.8986225,0.38994738,0.55729491,-0.20103833,0.37800309,0.57811934,0.25433743,-1.4276797,0.015301896,0.23589137,-0.24198821,-0.21385299,0.31211555,0.91588414,-1.0435554,0.29639676,-1.3445293,-1.2323184,-3.0871363,0.081537232,1.427496,-1.3967779,1.3713853,2.0669487,0.1583654,1.0634053,-1.2906517,-0.063875355,1.9390832,1.2381595,-0.58047426,-1.7711302,-0.24602191,-1.0075935,0.48668236,-1.2171271,0.6961056,-0.46329322,-0.99666065,0.7141726,0.053054508,2.2596955,-0.63034189,0.87179774,-0.40329146,-2.7548232,-1.0816947,1.1839522,1.7712022,-0.3237491,2.5339046,3.5392933,-1.6502849,1.390586,-0.012223752,-1.1817427,-3.4813247,1.2049533,1.3233093,-0.70162636,1.2202964,0.4441902,-0.5241257,-0.75441557,1.0556543,2.4031126,-0.11489546,0.79447597,2.7394602,0.024088761,-0.99970818,-0.34691972,-2.6251094,-0.23106153,-1.5564781,0.63324457,-0.18423112,3.0807467,1.1185282,4.8910489,0.74607843,-1.3416554,0.967143,-1.0259371,-2.6240232,1.1267152,-2.6512713,1.7533902,-1.5773215,0.15480989,-0.011316399,-1.6372887,-1.2429138,1.7774291,0.48832953,-0.46980232,-0.87218791,2.7587605,0.065274969,-1.1192771,0.99369925,-1.5787185,-3.859823,2.2230179,2.3468549,-0.58434105,1.1134839,6.7992039,0.39157358,2.236295,-0.17729191,0.79635137,-0.22254403,1.7792741,-8.8820353,1.4572757,-1.9007425,-0.95931101,-2.1040149,0.94879049,-3.1784327,0.01914466,-0.36556605,0.98166072,0.9913373,1.3928756,1.9107931,-1.5648488,-1.2711242,7.5074558,5.2155213,-0.98852581,-1.8265615,-2.0311782,3.3649573,0.80687863,2.4050817,0.69358832,0.56978887,0.42629999,-2.5960617,3.3585303,-0.70125347,-3.8294036,-8.1958666,1.3274959,1.1326041,-0.71849138,-0.52034581,-3.9536726,-0.41840607,-3.0849023,-2.2557757,-0.12461509,0.021100599,-1.0002433,1.6922038,0.62053639,0.24278918,0.81784034,0.4726766,-1.716808,1.434401,-0.7773068,-0.38941112,0.8138383,0.76050204,0.050901636,-0.98114616,-1.9898492,-1.1677226,-3.0206261,-0.3876037,-0.19956408,0.52739441,1.399954,-0.5394128,0.28614432,-0.85538566,0.83733726,-0.013973999,0.29775447,-0.79163545,-0.40520832,-1.0834776,1.3711215,1.046607,0.40420404,0.034680795,-1.2520909,-1.3297983,-1.2683754,0.46010876,1.1814722,0.42464358,0.96723437,0.36740467,0.72233558,1.4770075,0.41658577,0.10368225,0.68701869,-0.73432893,0.5687831,-0.2678147,0.36038625,0.61177295,0.67282677,-0.81240338,-0.74967808,-0.40628755,-0.79595864,-0.59959245,0.32940263,1.0557708,-0.48367861,-0.13857867,0.20323989,0.70452893,0.78066099,-0.50970185,-1.1535623},
